,0,1,2,3,4,5,6,7,8,9,10,11,12,13,14,15,16,17,18,19,20,21,22,23,24,25,26,27,28,29,30,31,32,33,34,35,36,37,38,39,40,41,42,43,44,45,46,47,48,49,50,51,52,53,54,55,56,57,58,59,60,61,62,63,64,65,66,67,68,69,70,71,72,73,74,75,76,77,78,79,80,81,82,83,84,85,86,87,88,89,90,91,92,93,94,95,96,97,98,99,100,101,102,103,104,105,106,107,108,109,110,111,112,113,114,115,116,117,118,119,120,121,122,123,124,125,126,127,128,129,130,131,132,133,134,135,136,137,138,139,140,141,142,143,144,145,146,147,148,149,150,151,152,153,154,155,156,157,158,159,160,161,162,163,164,165,166,167,168,169,170,171,172,173,174,175,176,177,178,179,180,181,182,183,184,185,186,187,188,189,190,191,192,193,194,195,196,197,198,199,200,201,202,203,204,205,206,207,208,209,210,211,212,213,214,215,216,217,218,219,220,221,222,223,224,225,226,227,228,229,230,231,232,233,234,235,236,237,238,239,240,241,242,243,244,245,246,247,248,249,250,251,252,253,254,255,256,257,258,259,260,261,262,263,264,265,266,267,268,269,270,271,272,273,274,275,276,277,278,279,280,281,282,283,284,285,286,287,288,289,290,291,292,293,294,295,296,297,298,299,300,301,302,303,304,305,306,307,308,309,310,311,312,313,314,315,316,317,318,319,320,321,322,323,324,325,326,327,328,329,330,331,332,333,334,335,336,337,338,339,340,341,342,343,344,345,346,347,348,349,350,351,352,353,354,355,356,357,358,359,360,361,362,363,364,365,366,367,368,369,370,371,372,373,374,375,376,377,378,379,380,381,382,383,384,385,386,387,388,389,390,391,392,393,394,395,396,397,398,399,400,401,402,403,404,405,406,407,408,409,410,411,412,413,414,415,416,417,418,419,420,421,422,423,424,425,426,427,428,429,430,431,432,433,434,435,436,437,438,439,440,441,442,443,444,445,446,447,448,449,450,451,452,453,454,455,456,457,458,459,460,461,462,463,464,465,466,467,468,469,470,471,472,473,474,475,476,477,478,479,480,481,482,483,484,485,486,487,488,489,490,491,492,493,494,495,496,497,498,499,500,501,502,503,504,505,506,507,508,509,510,511,512,513,514,515,516,517,518,519,520,521,522,523,524,525,526,527,528,529,530,531,532,533,534,535,536,537,538,539,540,541,542,543,544,545,546,547,548,549,550,551,552,553,554,555,556,557,558,559,560,561,562,563,564,565,566,567,568,569,570,571,572,573,574,575,576,577,578,579,580,581,582,583,584,585,586,587,588,589,590,591,592,593,594,595,596,597,598,599,600,601,602,603,604,605,606,607,608,609,610,611,612,613,614,615,616,617,618,619,620,621,622,623,624,625,626,627,628,629,630,631,632,633,634,635,636,637,638,639,640,641,642,643,644,645,646,647,648,649,650,651,652,653,654,655,656,657,658,659,660,661,662,663,664,665,666,667,668,669,670,671,672,673,674,675,676,677,678,679,680,681,682,683,684,685,686,687,688,689,690,691,692,693,694,695,696,697,698,699,700,701,702,703,704,705,706,707,708,709,710,711,712,713,714,715,716,717,718,719,720,721,722,723,724,725,726,727,728,729,730,731,732,733,734,735,736,737,738,739,740,741,742,743,744,745,746,747,748,749,750,751,752,753,754,755,756,757,758,759,760,761,762,763,764,765,766,767,768,769,770,771,772,773,774,775,776,777,778,779,780,781,782,783,784
0,0.0,0.0,0.0,0.0,0.0,0.0,0.0,0.0,0.0,0.0,0.0,0.0,0.0,0.0,0.0,0.0,0.0,0.0,0.0,0.0,0.0,0.0,0.0,0.0,0.0,0.0,0.0,0.0,0.0,0.0,0.0,0.0,0.0,0.0,0.0,0.0,0.0,0.0,0.0,-0.15991757097083628,0.037499322255214844,0.007285954552382573,0.003368919018745982,-0.009771930253097716,0.05592139823535247,-0.1121260039408699,0.0,0.0,0.0,0.0,0.0,0.0,0.0,0.0,0.0,0.0,0.0,0.0,0.0,0.19500060041852313,0.07300130141247367,0.0,0.020986291378948266,-0.0717064605198464,0.2888838824424025,0.0,-0.22792982507747994,0.1293044021073071,-0.009305585983163507,0.0030160171521318186,-0.0021018717980808834,0.0017249690244594855,-0.0003007405883624938,0.0003550206053684391,0.013544661084220345,-0.008130389385217858,0.014325892085372289,0.0,0.0,0.0,0.0,0.0,0.0,0.0,0.0,0.0,-0.46235125151826756,-0.2922154347626466,0.6500418539315093,0.34169252284664997,-0.5881054132768999,-0.0009950312716013711,-0.0004509729864774267,0.0001417059045690723,-0.0001570957510715903,2.864272306042448e-05,-0.00010924861050197037,0.0001263040424296829,-0.000164033293854327,0.00011361019358261374,-2.323002707612844e-05,1.940784658414283e-05,-5.318787319685814e-05,3.18738996002624e-05,-9.30417752495846e-05,5.074083552710377e-05,-4.4615267008359744e-05,-0.0002757226542628112,0.31391907702451033,-1.097720603534827,0.0,0.0,0.0,0.0,0.1577730291124762,0.0005098988896344877,-0.0001807495581059925,0.0013300833523359594,0.00018500424849692137,-0.00022472159761232924,-5.481643822324856e-05,5.056671378386734e-05,-0.00017473511942609388,2.2439806590511057e-05,-1.0680209631197104e-06,-2.254418708720426e-05,-2.299076993939612e-05,-2.2847262648571088e-05,-3.210568333181527e-05,-8.512184927045832e-06,1.0272240932822412e-05,-5.1808760283439506e-05,-4.911990898126103e-06,-6.052235290712485e-05,-3.912354587748502e-05,0.00010745224449600316,-5.770820828736695e-05,-0.0008142213086904954,0.0,0.0,0.0,0.0,-0.020909763055933915,-0.0005919028735922255,-8.89901535172862e-05,0.000767335963398251,6.72825197190866e-05,-0.00010663951207572136,-0.00024181609296657224,0.00021032813061001477,-3.0263778276068722e-05,-5.911087142291162e-05,-9.878613955531241e-05,5.6782875802537615e-05,-2.5129193763165197e-05,4.453759321318603e-06,3.370017983072018e-05,-2.490356431182783e-05,3.7460712986203062e-06,1.801236610762399e-05,2.3754458617772407e-05,8.605873349761628e-05,-7.239698711604615e-06,6.684315731909466e-05,-9.69961159555307e-05,0.0006431832910186254,2.8149988325494895e-06,0.0,0.0,0.0,0.08526897556251122,0.0007711273340682055,-0.0007513528638668452,-0.0006386440104592263,-1.81421642850514e-05,0.0003280718481080147,-0.0001348151912927434,6.830178125704159e-05,-8.009559394662596e-06,6.915288404231843e-05,8.968442535189797e-05,-2.3615843661946327e-05,-4.165836409331585e-06,-1.8679778235470772e-05,-6.34425507068413e-05,2.32192630222466e-05,-5.077190230564526e-06,-1.6913581118615402e-05,1.3965263841292212e-05,-8.148105618868576e-06,-1.0200059523635978e-06,1.7483438821026186e-05,0.0003068965006483596,0.0009468757298602986,-0.0013005602591854538,-0.6640596591768095,0.0,0.0,-0.00021537043467088066,-0.0009208096517349451,0.001070516329016237,0.00041978990383994327,-0.00013969880540973316,0.00010380982339256439,-6.42418046518974e-05,-5.3683821239666915e-05,9.36436188711169e-06,-8.330810234626082e-05,4.0499695568512855e-05,-6.465073519410628e-05,3.8154393616084504e-05,-6.945958593273051e-06,4.917992441078161e-05,-4.011246488262109e-05,-2.3214574528847404e-05,3.5637154196595824e-05,4.757593885022084e-05,-3.2712666971310255e-05,-3.138363605914564e-05,-6.343893090348361e-05,-0.00041503030050012716,-0.00012602961083467515,0.0002619138685048706,0.31455591358073515,-0.004317776240577168,0.0,-0.00035189664436128105,-0.00027569331833965355,-0.00042212568907040824,-0.0001963286409439581,-7.131112112716634e-05,-2.8769776799424733e-05,7.733239987881432e-05,-3.3750514774769985e-05,-5.0456528069906805e-05,1.5176137497789377e-05,-3.5526231553549384e-05,6.203763589268523e-05,-5.963642409902519e-05,1.8015099323971553e-05,-4.550845649471462e-06,-2.554930274406998e-05,1.2738323484263694e-05,-9.548227699604842e-06,-2.6780377451320444e-05,-2.914193301462848e-05,4.881165737512709e-05,-8.31457378780475e-05,0.00018235960858835082,0.00010268218194887069,0.0,0.0,0.0,0.4408469284758169,0.004747241889794676,5.2455121452326506e-05,-0.0001495683923622688,0.00013440418089353043,6.838315947356037e-05,4.691114740137793e-06,1.51068845845674e-05,4.321735887408398e-05,-1.0447079132933449e-05,2.2428031853227503e-05,-5.977069115074262e-06,9.517579175040078e-06,2.364329295898464e-05,1.935134981677394e-05,3.110426295134559e-06,1.9049297549304277e-05,3.4086098657777e-05,-2.3127986170718082e-05,-8.794923058937134e-05,8.829327376192327e-06,-8.149330063262059e-06,-4.28480112499363e-05,-0.0001250812874905819,-0.0006657306319347876,-0.36193358456314434,0.0,0.0,-0.2684676190232306,-0.0013724797587355913,-0.0008297379336333103,0.00022411909814041618,-6.590046469255638e-05,-0.00011043193998002657,-4.0980839889015646e-05,5.358078413065235e-06,1.9342314008268313e-05,-5.520829188918654e-05,6.087708170404747e-05,-5.063526146157222e-05,-1.1353405418689464e-05,1.2580130264781033e-05,-1.6703759169328207e-05,3.066936466329421e-05,-1.1029547130615513e-05,-6.242726892606523e-05,1.7350155462560117e-05,3.764473837685458e-06,-2.1731407306421486e-05,-5.631962497736007e-07,-4.2108970605064e-05,-1.8425178363211913e-05,0.0002596253847278998,0.448063419330683,-0.2300025422768256,0.0,-0.005472173823347811,0.010292462709928901,0.0007984457532712833,7.843457184416713e-05,6.278400343401475e-05,7.960969338613275e-05,-2.0796103429391e-05,-8.00642106912912e-05,3.328708443132676e-07,-1.7770877617858432e-05,-2.3576806494040326e-05,8.024621734721771e-05,1.1344202704858126e-05,4.17325770673466e-05,7.496799471722752e-05,-1.6089313015782695e-05,1.5204592972839796e-06,-2.0738685945797622e-06,-3.4572421112742964e-05,1.2047250561682806e-05,1.4693121056278621e-05,-0.00011425465119544087,2.8174598756548972e-05,3.9940355773586644e-05,0.0001442503474375081,-0.2993244381243504,-0.13498264633729318,0.0,0.035705998878448324,0.0001623210988590435,0.00037944031101641167,-8.220716570373825e-05,5.726783949733874e-05,-3.76022664461463e-05,0.00012059854129654716,3.766574698521934e-07,4.620736133080997e-06,3.4465990098170504e-06,-6.486719598892981e-05,-9.493295722451023e-05,-6.387511650853292e-05,0.00011708013137745758,5.9374712654601955e-05,-4.78362225727123e-05,-6.364601616555738e-05,2.1665435500140836e-05,-6.272828460970704e-05,-8.032445005951517e-05,-0.00010165322004738179,2.032673805844627e-05,-4.3187192439222474e-05,-3.856622848018714e-05,5.483271112269053e-06,0.43097035144659274,0.10043612667111623,0.001745505508600716,-0.010208335780673547,0.00028045048521745927,-0.0017389576672344664,-0.00017038768722429004,-6.693053834637172e-05,-2.2888006321672723e-05,-7.001124977466268e-05,-5.720516768736459e-06,2.7666737409609734e-06,-7.248573950631768e-05,8.014523249434398e-05,1.54520479824917e-05,-6.235577990034466e-06,0.00020279550421011493,0.00010214483139266782,5.176817791100248e-05,7.730525200556831e-06,-3.8616666564737486e-05,-1.3073783221379214e-07,5.2970956043693074e-05,4.161456181347422e-05,1.1015322842087369e-05,-1.9407726431495553e-05,-8.971561706474143e-05,-0.00030870437673266175,-0.4491974089089708,0.0,0.0,0.0,-0.0029648366809050526,0.000694893184726743,-5.212556776620805e-05,-6.054453024226538e-05,-4.153667092657867e-05,-2.268985286057687e-06,-2.136527030231185e-05,-4.907897343923079e-05,-7.536250688323458e-06,-0.0001278125190494198,2.486747844765831e-05,-0.0003355600974342227,0.001170584242805586,-0.0002500672254435023,5.9446782536397274e-05,-2.3637242683160007e-05,-7.945147801942322e-05,4.261170317298318e-05,-6.5426291051155e-05,-7.974315266102003e-05,-8.596561860096693e-05,-2.6133639320181707e-05,-2.6596912493293573e-05,9.892469125064725e-05,-0.00713423031535569,0.0,0.0,0.0,0.0034389145146337488,0.002068040382394393,5.674697768158314e-05,7.392449787745253e-05,6.739812676192293e-05,-9.66782066981472e-06,-3.5871857076213445e-06,8.175521051291725e-06,-7.815965870027052e-05,-4.0594268297607e-05,-2.690143270762051e-05,0.00019489952397839456,0.0008778203009119559,-0.00010361247050079876,-2.840484168283322e-05,-0.00019774032166705003,-0.00012530468727811747,-0.00010509572712929077,-6.009953830255767e-05,-3.0703479903926755e-06,2.8139484674061643e-05,-7.023463870984507e-05,-4.498182992632137e-05,0.00019756059215436246,0.02141681246722542,0.0,0.0,0.007316461328383221,-0.0007607993075057283,-0.0015611716460379916,2.813926912063972e-05,-0.00010770617838406388,-3.163113326661076e-05,-8.646490989092131e-06,4.3130403077635155e-05,-7.077550234046842e-05,2.0291116724335563e-05,5.6556871652708805e-05,7.348179527066509e-06,0.00031969384483245694,0.00015000721135792242,-8.88487305939546e-06,-1.686327401423487e-05,-0.00014040102647456344,-5.925638372542655e-05,-1.3581413850952176e-05,-1.5886940276188738e-05,-1.7419202424083965e-05,2.334288013493793e-05,-6.841121596842548e-05,-3.440430490162128e-05,-0.0004619771510051435,-0.0026449404672475537,-0.00402842541818369,0.0,-0.012659390416917809,0.028037290476355628,0.0003886335765018178,-2.347587672069529e-05,9.498109924356892e-05,-1.2671582800540276e-05,-6.912810231272057e-05,-0.00012374507753630455,-5.579264300816948e-06,-0.000114524191089037,-8.227422141210962e-06,0.0001250933298536513,-6.834122564797314e-05,7.944517693511963e-05,6.683561403325848e-05,0.00011076676352722085,4.386841200952184e-05,3.779484864992077e-05,-5.486216317315367e-05,-0.00012145995836891812,-6.249525928216802e-05,-0.00010640877668026718,0.00012021550029083124,-0.0001271210310849786,0.00020280732014685705,0.004666492728786569,0.000511209986663472,0.00352919343193841,0.001852440092843551,0.003360344553431089,-0.0002060787379125245,-0.00010570147461191461,-6.382646703662752e-05,-2.7230386404667427e-05,1.8678471521953792e-05,3.4354730435281186e-05,-1.0570808906124792e-05,5.384008675269771e-05,6.143348227856395e-07,0.00010052941121972755,-7.98291335814042e-05,7.338942027027909e-05,4.0845323839347624e-05,-7.456587840333584e-06,-0.00018280845914932743,-2.246993348990351e-05,-7.1508377539771e-05,4.1133221726866896e-05,-3.310395957474696e-05,-6.249089376696927e-05,-6.266599501428713e-05,-1.5015113696628146e-05,-0.0004331763746376449,-0.0004383386115625812,0.0010180236487492913,0.0007393853860532043,-0.00032963800710545304,-0.0008894189660048541,0.00015650319615414946,2.071869302108272e-05,-5.1250228216438544e-05,-9.524031162990084e-05,-2.7780616614179487e-05,-7.403495343612054e-05,1.553365051147103e-05,-6.263166892596682e-06,5.621671776357893e-05,-8.113800698711742e-05,5.321754144317879e-05,2.4851472837099298e-05,7.309670913630317e-05,6.719236229433718e-05,6.852083863574122e-05,5.497031281970782e-06,-2.384240141843913e-05,-2.3542894486502682e-05,1.0186914815078793e-05,7.846312071297522e-06,-7.256208553545743e-05,5.7350760551363754e-05,0.0012815304742437124,0.0015218112987680932,-0.0022518507227661947,0.0,0.0003932755331741792,-0.0015168180653604307,-0.0006913820009428373,-0.0002576964389701448,-0.0001946131474410537,5.4282661065030915e-05,-7.610359485465555e-05,6.655468217326626e-06,3.454106890114448e-05,3.309839045986425e-05,2.1721586607525075e-05,7.044879328267826e-05,-4.3475810699732355e-05,5.070243421838879e-05,4.689448882817746e-05,-3.63303663955874e-05,3.111563494760613e-05,8.282233142248417e-05,-2.2272350324922964e-05,-5.219341778441042e-05,-0.00015705534189121092,-0.0001751914908495219,5.790502465344059e-05,-0.00030487847504080836,0.000367609204286937,-0.00440775428637528,0.001121140909702272,0.0267810356024294,-0.009355927854460423,-0.0024100589333299963,0.00036881175515752476,0.00013247742173576576,0.00010381071784824706,9.53140362185342e-05,0.00016070096442740125,7.009541209406177e-05,-2.3463999075056784e-05,-1.373858728260189e-05,-2.6740144568663977e-05,1.7822528215379656e-05,6.650463615156659e-05,2.4312320212317183e-05,-6.045687907047663e-07,7.226245334789755e-05,-4.436097080819135e-06,0.00012664394124116085,4.715308481654512e-05,0.00011482755523502708,0.00019579700776770369,-0.00023881005714962878,2.238041133977119e-05,0.0013370726623065734,0.0013689410865902456,-0.0007288891812918125,0.00024073444935537977,-0.022831337863906554,-0.0072954244477850235,0.002517946695750041,-1.9815199851849722e-05,9.057523049649135e-05,0.0001037400611744513,1.5160054955677879e-05,-1.006259660186146e-07,-1.0334657720267176e-05,1.684204733119161e-05,-3.85072606081522e-06,-2.3655421340725896e-05,-9.448457939231689e-05,-6.742308078701513e-05,9.25616542543723e-06,-3.330292592973652e-05,-3.7532935996415214e-05,-2.3842157536579145e-06,0.00012406323847340766,1.0896368758656283e-05,8.494081418444912e-05,0.00036916924064090865,-0.0003722715853755098,0.00034525990017334303,-0.0014605271516357243,-0.0004145756825077366,0.0003795718127328664,0.0004458941535376189,0.0,0.0,0.0,0.002742729993250277,5.54254073982363e-05,-9.19136009265379e-05,1.5644813772526525e-05,-5.061785245887905e-05,-5.084391207367947e-06,-2.1711599531243567e-06,1.428403510338097e-05,-3.3106758882841864e-06,3.3723123989741396e-05,-1.9910495829387287e-06,-3.701232053346614e-05,-3.7131587708302266e-05,1.1800787789650815e-05,-1.8566369850124845e-05,-0.00010274073794685892,-4.6470742229333944e-05,-0.0001943730099841292,0.00044586677243621585,-0.00127494101594833,-0.0004883534922109239,0.001085515183923927,-0.0008324051344437585,0.00010497371553873865,0.0,0.0,0.0,0.0,-0.03820860257497605,-0.0002776811225894308,0.00020931232853183993,-5.1174572345049184e-05,7.016778028937e-05,-7.035519069535618e-05,6.878374648269905e-05,-7.000058051640083e-05,3.056933094820647e-05,-4.332856936232469e-05,-1.4452851947387958e-05,-9.73404954746557e-06,1.1781023112424707e-05,-7.828261220343753e-05,0.00023992558934291826,-0.00021090904349146418,0.0002964240630368511,-0.0002692693498658926,0.000337517080762037,0.0016183610796454372,-0.00037173922335666216,0.002338396198787765,-0.0023059242762826656,0.010472152348115599,0.0,0.0,0.0,0.0,0.0,0.0,0.002769388195433684,-0.0012368656629436283,0.002752377136578258,-0.0006428134463287023,0.0005605397211048072,7.340765405349913e-05,-0.0005434671542620446,0.0006284943175703026,1.4371301451204905e-05,-7.602463947423346e-05,0.0007013426294495579,-0.000286402177056928,9.414908815406713e-05,-0.012748666846655472,0.0,0.0,0.0,0.0,0.0,0.0,0.0,0.0,0.0,0.0,0.0,0.0,0.0,0.0,0.0,0.0,0.0,0.0,0.0,0.0003505703028656332,0.00019897175693414187,0.0,0.0,0.0008622736469776041,0.0025728554331073583,0.0008621704109410798,0.0,0.0,0.0,0.0,0.0,0.0,0.0,0.0,0.0,0.0,0.0,0.0,0.0,0.0,0.0,0.0,0.0,0.0,0.0,0.0,0.0,0.0,0.0,0.0,0.0,0.0,0.0,0.0,0.0,0.0,0.0,0.0,0.0,0.0,0.0,0.0,0.0,0.0,0.0,0.29015181509506444
1,0.0,0.0,0.0,0.0,0.0,0.0,0.0,0.0,0.0,0.0,0.0,0.0,-0.0003369585823314586,0.008664313831155863,-0.007278395920926153,-0.0003032620192346681,0.0,0.0,0.0,0.0,0.0,0.0,0.0,0.0,0.0,0.0,0.0,0.0,0.0,0.0,0.0,0.0,0.0,0.0,0.0,-0.04853772608939692,-0.0017443376259829696,0.008075437180130518,-0.005159162816098801,0.0024475865995817075,-0.00011979803209254278,-0.00414513042606081,0.002231506153937986,-0.0018408013955277889,0.0012898835608812834,-0.0016681306211159346,0.006576806385996422,0.0,0.0,0.0,0.0,0.0,0.0,0.0,0.0,0.0,0.0,0.0,0.0,-0.05885950712263351,-0.0400310939696965,-0.005872952074211526,-0.0005688306103505777,0.0015953744797139288,-0.0014949418601946688,0.0005713673384984282,0.00041317142596444806,-0.0006136649075853406,0.0002622945278189204,0.0002823323993241973,-0.00018386447285590726,0.00022259827115297316,1.0444832384929523e-05,-0.00013671481422006544,0.0004973796347162628,-0.0005722356778677148,0.0012822768275174284,-0.00011270881515418983,-0.016975763536275272,0.015477144269656734,-0.03158399722088405,0.04874416837987812,0.0,0.0,0.0,0.0,-0.03834855654723677,0.02219920029841098,-0.0014608324562681815,0.0008030494963572225,-0.0003528011791436714,-0.00014735669394041415,1.3634456189639377e-05,3.7629624632672675e-05,8.245276654088516e-05,-0.00013832360506909285,5.41751050202438e-05,-5.5841525431664164e-05,8.186677621310396e-05,6.595289421764016e-06,-3.510083134374475e-05,0.00012056687605690635,-0.00012046689582690848,0.0001011336315976017,-9.963200176195962e-05,8.717836967262755e-05,0.00026416898945099765,0.00013042004516279507,0.0012615612754982306,-0.004727145895000679,0.0,0.0,0.0,0.0,0.004406077426923217,-0.003311181709327546,-0.0008288149681669332,-1.84220244832397e-05,0.00020919820843945695,0.00013392249720090227,-0.00031776986612446314,0.0001745231412946086,6.669193274868713e-06,9.291960065269696e-05,-2.5038515325387496e-06,-2.4982125043214402e-05,8.05435824470133e-05,-0.00013096146200381706,1.808571244658478e-05,-3.913386503094837e-05,7.633770854058234e-05,-0.0001225163905881892,-1.7463188517049443e-05,-0.00019085455596921393,-2.8667049843956733e-05,-0.0008599198598488592,0.000269621300339129,1.7826146099235122e-05,0.0,0.0,0.0,0.0,0.0033301678955014536,0.001675274931919451,2.3467608614353512e-05,7.686866604034082e-05,-0.00020125651341486452,1.623957068068877e-05,9.25861612545908e-05,-0.00012110136488407087,-4.415595245994322e-06,-7.734140726877433e-06,2.1901980625737594e-05,-3.217394703159824e-06,2.233323793772617e-05,-5.388680165838635e-05,0.00010851860094823649,-5.06191623487537e-05,-2.662154601529177e-06,-8.755342683769864e-05,-3.0304533675070203e-05,0.00021211940317835917,-5.400140891166067e-05,0.0004409750343077024,-0.0009115901509821405,0.001224917566003691,0.0,0.0,0.0,0.0,-4.997301698847018e-05,-0.0007671690993696343,-0.0001695717583632971,0.0001435955418727504,1.5028150509380354e-06,-4.901050416978367e-05,-4.993870499722201e-05,0.00012749674784570355,-2.797298730168421e-05,-3.230938433120341e-05,1.9695355063807532e-05,-0.00010497392616906424,4.072263243847536e-05,-2.2745789691332006e-05,-7.343744999497971e-05,3.1255017241672735e-05,-3.7194653539534213e-05,-2.0766209509113576e-06,7.474832113228629e-05,-8.486380988878542e-05,-2.0337268551207492e-05,-3.229240280858341e-05,0.0001314830975561866,0.00010518654400885967,-0.000478322455690156,-0.013851791253207272,0.0,0.0,0.0027439410326325505,0.0009205068262273799,0.0004528929263867315,-0.00023526257414319623,0.00012939698880709856,-4.9075351334635674e-05,4.397673674103295e-06,-0.00011635853339413452,1.0974505789651834e-05,-6.927761941681941e-05,3.336782652561008e-05,-1.6191731737210688e-05,-0.0001376777639242555,-2.4022579431710844e-06,3.2608269099577426e-06,-0.00013111751662694973,-2.840052081618789e-05,1.9647708060049523e-05,-3.8540428618102714e-05,-5.319027479003286e-05,-1.5810430780769498e-05,-0.00014699124172376865,-0.0005407590924520853,0.0004535069228925014,0.0016215891575296858,0.006360472522616567,-0.009576271281513633,0.0021912427964333246,-0.0021462121114050364,0.0002645067881811952,-7.582064106398701e-05,1.449594620029424e-05,-4.898760762511526e-05,6.463323751773768e-06,5.7885963422071625e-05,2.6068426164699814e-05,8.591139928638303e-06,3.76667574918496e-05,-7.222577351404206e-05,4.428305661666794e-05,1.6553416380552435e-05,-6.376928959191159e-06,-8.050174724924017e-05,-4.522075212465776e-05,-8.153381217275723e-06,4.128598221787394e-06,-1.476574329927732e-05,7.917792538652906e-05,-5.591805024424105e-05,2.739069101186631e-05,0.00023850118521640408,0.00045206552142561647,0.0,0.0,0.0,0.0,0.0012735410951963946,-0.0010686909685103045,0.0003169639846239192,-2.089663709301353e-05,-4.3965020097704354e-05,2.5502930374667926e-05,-5.361551011021307e-05,-9.303535142276549e-05,1.716719005131882e-05,6.567675831733706e-05,-3.0144554798256955e-05,-3.410923248044626e-05,-6.844903964919977e-05,4.83948062668238e-05,-3.94316859300652e-05,7.798309982362588e-05,2.5943890628603703e-05,-8.392973890452471e-05,-8.410021752047106e-05,-3.040305856837226e-05,0.00012144133410226036,3.089872089382959e-05,-0.00024498980561441744,-0.0014639882502581348,0.007235509647788542,0.0,0.0,0.0,-0.0018293829869288354,0.0012995451990795615,0.00019896372422697624,-5.328329063266559e-05,4.804191911306898e-05,-8.355638299015491e-05,6.290805976921379e-05,-9.92450227675138e-06,-5.893729076118933e-05,4.8065074443865035e-05,-4.189320133766789e-05,1.970110861396704e-05,4.183855719421625e-05,-0.0001637153405525816,3.9483456232999365e-05,-6.739652714227507e-06,1.982795858269771e-05,0.0001032632585321016,7.339930488199123e-05,5.3445587600353006e-05,-3.363920952562916e-06,-9.271630724081846e-05,0.00016387586409607327,0.00040614218584997843,-0.0002301096472404135,0.0,0.0,-0.016765989867163374,0.0,-0.0011490139890836214,1.2611866385404432e-05,0.00030295969278777327,-5.108028648986112e-06,-0.00010889385597232175,-5.424995475695129e-05,-3.686297610054928e-05,-4.60168867282512e-05,-0.00015989837994211329,-4.807086877937029e-05,-0.00010757541526902845,-0.00013222656526333713,-3.213789958445457e-05,-0.00012689638172089373,-4.508784345187691e-05,2.571982599020191e-05,-1.0354760023455366e-05,-4.609124330115756e-05,-9.404262421788129e-05,-0.0001659880215931218,1.0916087907109484e-05,1.9919199482450246e-05,0.0003782157767097375,-0.0011140171672305904,0.0,0.0,-0.0187262271926119,-3.591152612510448e-05,0.004187730832608757,0.00018997158828443819,-0.00025301884089119845,-0.00016462720709699885,-0.00013992602241336548,-0.00014984659192028658,-0.00015144663038168483,-0.0001438113334568709,-0.00021066350071399732,-0.0002532440309888392,3.5871673336888995e-05,3.5874832900884116e-05,-5.095394696795949e-05,0.00013892687079385837,-0.00014103929755818382,-0.0001063505511524142,-0.00010798061421008162,-9.339826696143546e-05,-5.590230011847782e-05,1.8571770257601213e-07,-0.00017356097491132543,-0.0001495613582370392,2.6359797655354195e-05,0.0012323680589112617,-0.009122894811031408,0.0,0.0029547458927066277,-0.0002497048321859009,-0.0029366003902177125,-0.0007840195502071374,-0.00012062650042293663,-0.00017993943091967334,-0.0002270324386229062,-4.148263918136388e-05,-0.00015351051838345163,-0.00013063484082153146,9.22331515853215e-05,-6.307308028209638e-06,0.00021184077958856236,0.00024256886924501616,-1.2485379250672428e-05,-7.744604513277159e-05,4.214890036198416e-05,4.7626616672390786e-05,-8.59310285399248e-05,-9.586221313386177e-06,-2.7568001904826355e-05,-5.975733665196889e-05,3.843479634793214e-05,1.669023790721892e-05,0.000193733742719432,0.00024254790159751843,0.0031679948961145107,0.0,0.0,0.0,0.0019654677765885945,-4.437231215337153e-05,-0.00024205980456504838,-7.557570890864165e-05,-6.9219258034341885e-06,-6.688475925740237e-05,-8.761402994108488e-05,-7.170594723845273e-05,-8.256261950037148e-07,5.398004028142638e-05,0.00023544913968296662,0.0001266403436772663,5.70629453847314e-05,0.0001009776048623555,-4.986475442098115e-05,6.340604772101409e-06,6.24008137210003e-05,-6.104231698656927e-05,-0.0001201575990173749,2.7419106317603782e-05,-7.186862360814547e-05,-0.0001508934300988046,-0.000196290402969194,0.0009537198156568134,-0.0024023709237629195,0.0,0.0,-0.00708531657364304,0.0007948917261062015,1.8601186964952865e-05,0.00013939482918425916,-1.0699061167560048e-05,-4.642839794655925e-05,-3.498268252396417e-05,-7.462920108901943e-05,-0.00010626045839664869,8.676826029992543e-07,9.703717904962237e-06,0.00024641971333834965,-2.345511677560157e-05,0.00015369399970183476,0.00016799900112169202,1.4006825002347792e-05,-2.3760568604633535e-06,6.342415575393573e-05,7.549712712046098e-05,7.561786127773091e-06,-6.173373833796775e-05,-5.731608804998591e-05,0.00027409182150336177,0.00013938197175867895,5.42541826155114e-05,0.0006670201579181688,0.0,0.0,-0.0009573095522597527,0.00023212532870174734,6.961599423389087e-05,-0.0001158345814976875,2.4281390943686373e-05,-7.363951055124308e-06,-1.4919938966704887e-05,-1.6121364447299932e-06,-3.228209811272525e-06,-0.00013655168836906165,0.0002650994934430207,0.0001647021215211628,0.00013615026330762413,0.00013610694386708417,0.00026266815265023357,0.00010335718504912702,1.3078325177016476e-05,-1.7538711873285472e-05,-3.527210686432942e-05,7.896694666769442e-05,-4.1243818161279704e-05,4.35652542944929e-05,-0.0001830301795417362,5.642964549490903e-05,0.0007424951977862578,0.0005842838556584248,0.0,0.0,0.0019703256801599203,-4.295797385156198e-05,0.00017331709748386127,0.00011071779761621943,2.8477729815004056e-05,-1.6973367637819403e-05,1.9893547522050614e-05,-9.21698096096135e-06,-7.071981494164213e-05,6.379804724188544e-05,7.062802384560465e-05,0.0002468974021426316,6.431647683269097e-05,0.00019709435967665275,2.0592954188678386e-05,-2.6520282523732453e-05,3.377707739712609e-05,-2.0736653614873375e-05,-4.560384944601819e-05,0.00010793728277220732,3.355938920655042e-05,-6.971976612480411e-05,3.285737406977926e-05,0.00032856396801910745,-0.00025009987499230105,0.00017458472746604284,0.0,0.0,-0.0007439687626140962,0.00024755275884906405,-0.00012560371140713745,8.66888029700365e-05,6.963592703860307e-06,3.242666868227518e-05,-4.844240518826442e-05,-4.284968410682891e-05,5.328917959475332e-05,-4.6497322770138734e-05,0.0001066060419530474,4.460449208928432e-05,0.000139791391850182,-4.048378202388623e-06,0.00010351749186221344,-2.543916847295913e-05,6.626619711768127e-05,5.526878160215722e-05,7.519797111384886e-05,-3.3796044015119755e-05,1.6975762776032123e-06,0.0001308778150248497,6.131672686093386e-05,-4.324318339720896e-05,0.0003537734666474719,0.004298515877963596,0.0,-5.492360086880964e-06,-4.3558966323041406e-05,-3.7834895309534074e-05,6.59940970696042e-05,-1.720613947849847e-06,4.519571806553893e-05,-5.297025926963332e-07,-1.2545318974381516e-05,1.007223594614467e-05,-2.4547678281586727e-05,2.1970791459083223e-05,-8.896980163972455e-05,8.460725212761703e-05,5.484242903022252e-05,2.8843802997587255e-05,9.11044408220933e-05,9.736925820605099e-06,3.072346076086862e-05,1.491022968560459e-05,-2.8353939512899276e-05,5.180464303353714e-05,2.3255154151139827e-05,-2.5290073353909498e-05,-1.864327634036877e-05,0.00043796455857838314,0.00025618996926946497,-0.0018622002324734366,0.0,-0.003174666965215201,-0.0002207404990092277,0.0001443432442426169,-3.350353984283935e-05,2.622997798983127e-05,4.715836181777998e-06,-1.2826444346035056e-05,-1.2041047862412276e-05,-6.765708613702153e-06,-1.1944572735244316e-05,3.1382348101277335e-05,2.8131401497846392e-05,2.7354006278394453e-05,3.649848150437341e-05,2.3802588298281092e-05,9.496222954835685e-05,-6.388160052385025e-05,5.717864158947935e-05,8.45385749280439e-05,-6.991954154385512e-06,5.52145315988711e-05,1.079812530386811e-05,-2.3790842135446712e-05,0.00013883816437021884,-0.0003641809784929,0.00020851164764319117,0.0,0.0,0.0014647477943460561,0.00010407959275217389,-4.155561579776033e-05,1.4084688747504299e-05,-3.0123718737753405e-05,-1.2201535352295503e-07,3.9091049352684864e-05,-1.9366139563769606e-05,-1.2326898718559262e-05,2.030988427412449e-05,-8.781403585110396e-05,3.189638941241901e-05,0.00014361879667664586,8.655103521046252e-05,-4.5232271686245844e-05,0.00010268462625515393,0.00011074384916731972,-1.9939706142417858e-06,8.48425612286258e-05,5.6193639485158245e-06,-3.097114619809498e-05,2.6740552470984713e-05,0.00019638521148717888,-0.00011726564152547725,0.00033985290152918656,-6.964337448366768e-05,0.0005111649761143858,0.0,0.0,0.00025012239557433536,0.00017649097617237794,0.00010966631074007267,1.3856361320268694e-05,-3.8409341917720026e-05,1.8176236155198363e-05,7.144596958124153e-05,6.488720897335046e-05,1.3959890570355438e-05,-7.760817480213035e-05,-3.044482289713383e-06,-0.00017763961160298874,-9.714267327634677e-08,2.14667561659678e-05,0.000167665274421183,-4.990801479145604e-05,0.0001535198702019746,-8.406573929781963e-05,0.0001685693082447308,-7.430612373489852e-05,2.4230312124484733e-05,-0.00012799788906113637,5.45797474427689e-06,3.516683915432214e-05,-0.00041698732592851547,0.0009438640141754113,0.0,0.0,-0.002926299022221351,-0.00018908408988726788,0.00042510912681875115,-0.00017534089024620841,0.00018785888937362127,-7.651904804567591e-05,0.00014560991728450342,-9.904183999592106e-05,9.879485820868193e-05,-4.6842086051125606e-05,-1.6255604723021877e-05,-0.00011192323353764446,-8.968159008479325e-05,-0.00010890667289215209,0.00018953815789444473,5.947536526898627e-05,5.4165037968291225e-05,7.416998650274247e-05,7.973906870288383e-05,1.6121064281703513e-05,7.917158210106049e-05,6.7146743069303e-05,-7.121046757783438e-05,0.0012102988673753838,0.0034554486476075738,0.0,0.0,0.0,0.0,0.0005198452085106509,-9.106033985524083e-05,-0.00013781369067511219,-5.697024630664913e-05,0.0002336072697671952,-0.00016321216725364576,0.0001946920944973474,-0.00013157513584251634,0.00014084739099572315,-8.79626949871919e-06,-0.00010162384626204916,8.348881571828079e-05,-2.01151014219642e-05,1.8653347203870685e-05,0.00019584898841515193,-0.00012421193988606006,0.0005841069480876633,-0.00027490671592417433,0.0005568348755089453,-5.771531449275141e-05,-0.0001384986687381892,0.0009534167329938542,-0.0005200583375391015,4.489889687753987e-05,0.0,0.0,0.0,0.0,0.0,0.0,0.0,0.0007923592567072765,0.001805503017234488,-0.0033569153448011987,0.0012823981964515516,0.00137725777268604,-0.0007213741561963019,-0.0006356944258676052,0.00017246642109603258,0.0005674460603017086,-0.00030758186347422416,-2.3966503287901696e-06,0.001079154630734209,-0.0008815179135276283,0.001316325142117898,-0.00018007692400256661,0.00024780743054097354,-0.002468875509925291,0.0038619209564890134,8.721036084050766e-06,4.000230765300016e-05,4.7744025702757857e-05,0.0,0.0,0.0,0.0,0.0,0.0,0.0,0.0,0.0,0.0,0.0,0.0,0.0,0.0,0.0,0.0,0.0,0.0,0.0,0.0,0.0,0.0,0.0,0.0,0.0,0.0,0.0,0.0,0.0,0.0,0.0,0.0,0.0,0.0,0.0,0.0,0.0,0.0,0.0,0.0,0.0,0.0,0.0,0.0,0.0,0.0,0.0,0.0,0.0,0.0,0.0,0.0,0.0,0.0,0.0,0.0,0.0,0.48078110770401644
2,0.0,0.0,0.0,0.0,0.0,0.0,0.0,0.0,0.0,0.0,0.0,0.0,0.0,0.0,0.0,0.0,0.0,0.0,0.0,0.0,0.0,0.0,0.0,0.0,0.0,0.0,0.0,0.0,0.0,0.0,0.0,0.0,0.0,0.0,0.0,0.0,0.0,0.0,0.0,-0.000644106160590476,0.01170577962699116,-0.0006790141258219979,0.0,-0.01751370974393834,0.013013265725240943,-0.019808140513389458,0.0,0.0,0.0,0.0,0.0,0.0,0.0,0.0,0.0,0.0,0.0,0.0,0.0,-0.058383834054876,-0.027549131566118684,0.0,-0.005769589862656918,0.0158730980025193,-0.07134019710300094,0.0,0.1609512410780232,-0.08301256187059382,0.023000624333112674,-0.006818741202288592,0.0083324935446322,-0.005749789982723868,0.004112944062243172,-0.05563021230357574,0.24282237001024368,-0.13677398419344364,-2.7573920540817305,0.0,0.0,0.0,0.0,0.0,0.0,0.0,0.0,0.0,0.0,0.02600305493012682,-0.0027943975308921047,0.0028793184678141,-0.0017237164585664955,0.0008618077571807486,-0.00012873934340251568,-0.0003635414236955569,0.000613841423873082,-0.0003358528784416242,0.0003225645287071316,-0.00017483424461397823,0.0002955855488187008,7.845426981953728e-06,-6.644586613022694e-05,0.00016457115805346658,0.0001387253130063764,-7.510633519402454e-05,0.0002305208737511426,-9.609780324118842e-05,-0.00035196643789975644,0.00038360589617504094,-0.06360024162938303,0.223932998323352,0.0,0.0,0.0,-0.002192378359309622,0.0022361058840474207,0.0011883449559770424,9.308026581234789e-05,-0.0002802305261340055,0.00031448504520615613,-5.3421267696308014e-05,0.00011947614479765038,-6.629159851330534e-05,0.00011925344647245074,-2.2464435124540606e-05,0.0001989338639700036,-7.844719488768981e-05,0.000104083911828545,-0.00011497694020700014,0.00010147800167911223,-1.955783593887088e-05,8.516851115867529e-05,-0.0001271664398383333,9.416237366682732e-05,-0.00014613881962820106,0.00024233801017537897,-0.0009727047993988151,-0.0010151041735915747,0.011860866117979109,0.0,0.0,0.0,0.0,0.0022468015100498345,-0.00018199915787386737,-0.00017453320657189277,0.00033963386784017374,-0.00019839540479358719,1.4990261753341357e-05,1.8744784956630007e-06,3.523051279068007e-05,-2.1848601747047737e-05,3.077841509006583e-05,4.7557828309224547e-05,5.0842867738754195e-05,-9.32070787555128e-05,8.58276133743235e-05,7.031679044063158e-05,-6.543078506488177e-05,-4.178992178784485e-05,1.8020670514508534e-05,1.7916240788215612e-05,5.462556752788699e-05,-8.126656647168487e-05,0.000481412832672168,-0.000777906386576198,-0.01275717190481581,0.0,0.0,0.0,-0.0471704657086409,-0.000992340373805238,0.0005697084464848643,-0.0001252878559653591,-4.2820997268372666e-05,8.649129268067806e-05,2.8265138772229156e-05,-9.273737342066714e-06,8.551325038022101e-05,-3.4278474194605585e-05,8.433871407266385e-05,6.308277438825135e-05,7.054042446234632e-05,-4.347453226782946e-06,5.945589317756639e-05,7.113367792049406e-06,-3.0914531157156015e-05,8.272704465575001e-05,-6.433712215142662e-05,9.413280396281646e-05,5.5068692152855215e-05,9.679436915196138e-05,-6.530813820792231e-05,0.000817046949204545,0.0010064254658193421,-0.0015933617926625044,-0.037847980949180786,0.0,0.0013519454866006233,0.0003034426153009595,-1.741330888466712e-05,-0.0001779394057275538,9.633417482395069e-06,-4.577579266232888e-05,6.231980058584519e-05,-2.2944529135993863e-05,-1.631510028416803e-05,2.6593794805697268e-05,-9.575290462290762e-05,7.152282002626374e-05,-6.858228850704337e-05,-5.346370310377018e-05,1.583149303633528e-05,1.1516578547357086e-05,-8.535656209355552e-06,-8.013016647087827e-05,2.6479881172447255e-06,0.00010268144415828416,-0.00015726702489399084,-8.949526178847682e-05,6.388893283739606e-06,-0.0005480139009448442,-0.0005886590521800992,-0.006049081291699838,0.018094568421547882,-0.005009738261877201,0.028093494000686794,0.00048574249951755335,9.737141343394348e-05,4.992369391524764e-05,-1.977987736152213e-05,2.1346289378673288e-05,-0.00010542430550100347,3.584820738538076e-05,-5.646360138294973e-05,7.9369355445221e-06,4.250720986592414e-05,-3.429169830182875e-05,9.858576636539929e-05,-4.023378102436027e-05,2.365330207610402e-05,-7.553887716455701e-05,-1.5262808585235867e-05,1.0878864047500994e-05,3.4550071744481774e-05,-7.083252508527477e-05,4.50222806521767e-05,0.0001517522166217441,-8.70261784443874e-06,0.00040341189501596076,0.0004813579735054319,0.0,0.0,0.0,-0.013272566977038425,0.000665035222990188,-7.013614791536512e-05,0.00023534099125220492,-0.00010241421909189044,6.465935626363546e-05,4.4201036675961875e-05,-4.5676407359036187e-05,-8.638395821136626e-06,-3.5569835263667284e-05,4.810791851968632e-06,-1.4869519042907278e-05,-0.00012103935931076639,1.4971454007310855e-05,2.3067272058728838e-05,2.199534188922285e-05,7.262971304972006e-06,7.506684675113927e-05,-8.627356834494235e-05,-5.563422951192043e-07,6.16080464942087e-05,-4.137700776944436e-05,-8.911778627500677e-05,-0.00035421705624163774,-0.0020476434564606315,0.0,0.0,0.0,-0.01873924840871583,-0.003089625090945281,0.00011182593824282774,-0.0002883099989738619,0.00022262409628718606,-0.00011535655978241978,1.9543534483751876e-05,4.415332145312048e-05,-6.507616294676818e-05,-2.4038511159928484e-05,-5.727730440239661e-05,-1.780670491011058e-05,5.651719118393784e-05,-2.2604818733061452e-05,-2.891706284365375e-06,7.048247627156543e-06,-0.00019790183243514032,-0.0001387755001871387,1.6125576070207066e-05,-7.563897274893506e-06,-1.8952005056288756e-05,7.190307336920307e-05,-5.044754501364502e-05,8.417227040536965e-05,0.0010046700123930545,0.0,0.0,0.0,-0.0063918734972282214,0.0014437188922670487,0.0004722475449342074,-9.144994702719287e-05,-0.00023102318362452912,3.1594962758384926e-05,-0.00013607362103439222,-2.8154944633140148e-05,-3.6663093695008196e-06,8.58985033408236e-06,-1.900361541476619e-05,9.449510739937983e-05,0.00014985873397053092,0.00011925619862460419,9.370908803430415e-05,0.00012200540444285588,8.313928533739323e-05,-1.9846208123631643e-05,-0.00014799623117441735,-9.690021853988047e-05,-0.00012007879341685291,-0.00024588989616922244,-7.40211439972892e-05,-5.836401633374822e-05,4.634890352712171e-05,0.02815039149118001,0.0,0.0,0.00950796583256239,0.00376698467347035,-0.0001056756534263553,0.00035198025539805156,0.00015568643551966014,-0.00014863491612747217,8.570904634402446e-05,4.213271406454179e-06,-3.6347802682430664e-05,-5.214429617454483e-05,-8.732563338369519e-06,8.647870894806253e-06,1.0952512654169959e-05,0.0003148750972053446,0.00018738804937819882,0.00024896212735225475,9.735928585126658e-05,0.00012630974968184027,8.225058325438161e-05,3.171689448264492e-05,-0.00011270379966532928,-2.554690466923351e-05,-0.0001208730582192127,5.945984005063317e-05,-2.364607781358421e-05,0.004228883109320541,0.0,0.0,-0.004299191313895253,-0.0017331331835095298,-0.0007555840250964429,-0.0004956342824697245,4.1011135468589076e-05,-1.50451069180705e-05,-0.00012128758814782018,-3.174631616329052e-05,-3.6161074980420075e-05,-3.088730331157066e-05,3.11848768950648e-05,-1.6005556399111734e-05,0.0001760000567398301,0.00014259427503882582,9.214997860775875e-05,0.00027495772975437866,0.00010364987645106678,4.630639991848118e-05,-7.192084840947565e-05,-3.4509328115556106e-05,-3.587036394085302e-05,-0.00011418461378630996,1.4323525838497274e-05,-0.00020178920018929758,-0.0006821757887135735,0.0017766293532694856,0.0,0.0,0.0021602866831246545,-0.030635580846533964,0.001794059120559231,0.00014871281349770028,-0.00017982301039742277,-0.00010433572837991888,-1.9715800543242214e-05,9.560741524343918e-06,-3.3955000309785105e-05,-1.9481103594196954e-05,-0.00011636563567579542,4.9603784487065585e-05,-1.4849239295109735e-05,0.00022947659768660168,0.00011214881615756032,0.00021561606207398835,-2.215909989832841e-05,-3.1065323985704774e-06,-1.3930487128488518e-05,-9.287079499041524e-05,-6.811553170232526e-05,-3.7663111048917824e-06,-0.00016091955979995903,2.4168506911808895e-05,0.000968468806507524,0.0,0.0,0.0,0.009024766772117757,0.0023130031026806492,-0.0006984694986229411,5.544120907599944e-06,5.570023613446492e-05,7.937216146320038e-05,-8.994274068010651e-05,-5.9110452250534725e-05,-8.357928114020693e-05,-0.00011240271057686395,3.645363890365608e-05,-0.00012585472256397174,0.00016847333105071693,0.00023019687591880285,2.837751915016611e-05,9.73301286453472e-05,-1.9553097665236227e-05,-8.618603731376065e-05,-1.031312547266485e-05,1.1915641085080652e-05,0.00013400507558232247,8.248315579356676e-05,7.01259680782689e-05,-5.784146697453703e-05,-0.0011923951270753246,0.001297046269205367,0.0,0.0,-0.00013017380726227697,-0.001414749856201209,0.0007874840942732248,-0.00021026842899476023,-0.00016717951375000285,-7.072949418295875e-05,-0.00017907807365700077,-0.00012766115188618378,-0.00012603620253431755,-6.82517743356961e-06,-0.00012487740537324608,-7.225246709733385e-05,0.0004713711201058703,-3.8664685574706097e-05,4.625245113521667e-05,-3.7509070509925924e-05,-8.311655612299581e-05,3.230935949319834e-05,4.789510505644703e-05,2.151814258554172e-05,-1.182765946523784e-05,7.264205158180784e-05,-2.7240813053612334e-05,0.0001568539213799402,0.0005478082704059335,-0.0008924192076798422,0.0011188946717120628,0.0,0.0016323481180915106,0.0008413451509944491,-3.5294027697307465e-05,0.00015530002228524047,0.00013580078755733732,-0.00022506160351125202,4.1929190574254156e-05,-4.645679351722521e-05,-8.994105848194982e-05,-0.0003794727180104727,-8.2486002226765e-05,-0.0001834508557294155,0.00039457543208264845,-0.0001773620282890134,-6.186675597001099e-05,3.2757832699885104e-05,2.9878807077964828e-05,8.021179714334758e-06,5.923571821296704e-05,-8.445181150972637e-05,-9.26263971280841e-06,-6.59094528426865e-05,0.00016644501812950355,7.172675608813885e-05,9.847864418964374e-05,0.0,-0.004527410583950613,0.0,-0.0013853572922401013,-0.00099450245592954,0.00043834924160717674,-0.00018039222309733865,-0.00013232568635003456,9.435174655601343e-05,-4.024003357069647e-05,-4.8286139310749695e-05,-6.695594227041341e-05,1.2051679097001091e-05,-7.122429707747224e-05,-3.80170956494675e-05,0.00010545446446217717,2.1415710705493633e-05,2.863371936526894e-05,0.000102850606729575,-2.5167430855391314e-05,3.787042142917261e-05,-3.62017687685677e-06,9.946219457896017e-05,-3.3567540195072714e-05,7.641848168106946e-05,-6.741832903824021e-05,7.280189244358692e-05,-0.0005444949534339153,0.0,0.0,0.0,0.0006000322593030914,0.0005401848101222605,-4.4279183974469645e-05,9.533291887018693e-05,8.032127044428855e-05,-8.941017053462336e-05,-3.853357410956511e-05,-3.089676583483721e-05,-3.441705871128733e-05,3.756267603768931e-05,-2.2472249631496326e-05,-9.281233741179488e-06,4.242339015458954e-05,5.4578943580627815e-05,-3.0476182782400033e-05,0.00010037405788370697,4.490732820826554e-05,3.3133229573278705e-05,3.3346891804561698e-06,7.486383718238677e-05,0.0001133657913750825,9.612812741691084e-05,-1.667945585869707e-05,-0.00047749057449806035,0.001972765443122966,0.0,0.0,0.0,-0.0019382480059802246,-0.000437876285910837,0.00028152398589167136,-2.671511955210265e-05,-0.00010928572732796338,6.546401519608915e-05,4.553778417026406e-06,-8.534186752699305e-05,5.355496298052571e-05,-7.831655151946177e-05,-4.11967174731202e-06,1.4192378763259847e-07,-4.4627944357265325e-05,9.726960124691186e-05,-7.321098738403648e-05,6.176904217258389e-05,-2.2692365552305506e-05,2.5242481893506527e-05,3.7757622544592735e-06,-7.776167269821181e-05,-1.4618212196065094e-05,-6.573157872909931e-05,0.00011091787115299334,0.0006221815564935793,-0.0063570018100772945,-0.0016074232665776401,0.0,0.0,0.0029132031627571793,0.00020101223271092093,-4.402082015953935e-05,-1.4689764141339859e-05,4.18543477868887e-05,3.151163022367805e-06,1.9544193005039537e-05,1.2205730369197412e-06,-5.335695826196887e-05,-7.278894435202756e-05,-0.00012942450341509528,9.580955943470718e-06,-4.713641718167851e-05,7.141229120192946e-05,-1.6856051002638452e-05,7.157480362971719e-05,5.759298235130622e-05,-2.2767996959976848e-05,2.8743292887777036e-05,-3.8539116162123884e-05,-3.183300717573819e-05,3.4226659294808782e-06,0.0003433060351496533,-0.00034245427474019924,0.020480356085122657,0.0035792272953854712,-0.00563757133588658,0.0,-0.004072112069149183,5.277258473317459e-06,2.7198470183907946e-06,0.00016045932059668072,-8.496351090493096e-05,-4.0353720654820105e-05,-1.925185094885326e-06,1.0853905373320413e-05,-4.329793118960101e-05,7.008585685775129e-05,-8.794785940586597e-05,-0.00012938856991775717,-7.009520739791083e-05,-7.793150830838534e-05,4.561705720778383e-05,1.409390116092888e-05,9.377044684655652e-05,6.824131868551733e-05,-6.738675904308363e-06,9.490219922862116e-05,4.615416252088361e-06,-0.00015837665925082489,-0.0005174059944371015,-0.0005559683171443717,-3.854077379233596e-06,-0.06682056263908895,0.002785956223791304,0.0,0.0,-0.00017746298806781385,1.84148297226562e-05,7.87461425648591e-05,-0.00010557325296021118,8.278498757028754e-05,-1.4312749499992053e-05,-2.1562286838937132e-05,-2.2084039665339756e-05,1.729164383284026e-05,4.215709084984572e-05,-4.771670980165041e-05,2.9073063750608e-05,-0.00011869249662340754,-1.7607999089652277e-06,4.099741358495895e-05,-0.00014525548629490862,0.00020593654893469145,1.7046807300513023e-07,-6.633406105407558e-05,0.0001562514543319876,1.315033671426407e-06,-0.0006227172473724333,0.00013050622951194297,0.0017685231847714966,0.006684854290413319,0.0,0.0,0.0,0.0005123603960707969,0.00014106087117376004,-0.0002171102970901303,0.00026052819449698237,-9.219759959839525e-05,0.00021323056210297033,-4.850242910637397e-05,6.679514467494244e-05,-6.129440664033883e-05,3.6648667649714633e-05,-4.809204142432776e-05,-2.557537495676935e-05,-7.010498467921637e-06,-6.074362810361431e-05,0.000260149179988303,-0.00021907336722812963,1.4143223558082922e-05,3.95071499258628e-05,8.375154251726934e-05,3.24749465962286e-05,0.00044194307841778424,0.0036704270061009067,-0.010616207125238183,0.00630172612393272,0.0,0.0,0.0,0.0,0.0031124235934718346,-0.0010690884104296238,0.00024203425690168278,-7.735415837678329e-05,-6.568692211475246e-05,0.00020166377508414214,0.00015915343506914666,-0.00014308592241985636,0.00044207492227199644,0.00010301528442582691,-0.00011625636653246034,0.00015454584692620976,0.0001592059930106954,-0.00012863886047018963,0.00011131431174706004,-5.174231600613579e-05,4.0883784770082605e-05,0.00045626790567399056,0.0004695629677754293,-0.0017360304275075178,0.010434966407117134,0.0,0.0,0.0,0.0,0.0,0.0,0.0,0.0,0.0,-0.09176406260382287,0.019527268170506637,-0.006209023374279591,0.023478657083338583,-0.036950872360797096,0.013836484561897422,0.0009971453547115991,4.0086159790599916e-05,-0.0002637762676858786,0.0011517343959157327,-0.00021038807731260285,0.00013332056450532346,-0.0005704902120094342,0.002405598657369725,-0.0011654860555902868,-0.00018393263518141052,-0.00577559485883075,-9.486059175384141e-05,-0.0007496746426729213,0.0,0.0,0.0,0.0,0.0,0.0,0.0,0.0,0.0,0.0,0.0,0.0,0.0,0.0,0.0,0.0,0.0,0.0,0.0,0.0,0.0,0.0,0.0,0.0,0.0,0.0,0.0,0.0,0.0,0.0,0.0,0.0,0.0,0.46308072078849144
3,0.0,0.0,0.0,0.0,0.0,0.0,0.0,0.0,0.0,0.0,0.0,0.0,0.0,0.0,0.0,0.0,0.0,0.0,0.0,0.0,0.0,0.0,0.0,0.0,0.0,0.0,0.0,0.0,0.0,0.0,0.0,0.0,0.0,0.0,0.0,0.0,0.0,0.0,0.0,0.04222573639994362,-0.08678993819245014,0.05408966036695063,-0.008262331094094482,0.04527944650207415,-0.07429126504738479,0.11474797980537373,0.0,0.0,0.0,0.0,0.0,0.0,0.0,0.0,0.0,0.0,0.0,0.0,0.0,-0.12228746913926684,-0.039274104272408676,0.0,0.0010490019123403785,-0.012411628103958048,0.07043942437017707,0.0,0.0,0.10355096819668705,0.005708721112694,-0.0028898308524916544,0.003060216879036547,-0.0005360746881959948,-0.0017232543003643382,0.009782871272561668,-0.08095734627881634,0.04386811614963458,-0.07083712900165703,1.812769837102737,-1.6915585933397819,0.0,0.0,0.0,0.0,0.0,0.0,0.0,0.0,0.06334651056051566,-0.06875568795665672,-0.039268364313137946,0.0666890221180664,-0.005503348125746196,-0.0002704268769681029,-0.00016479329757585287,0.00036894025769591317,-0.0004368636339164478,6.555184204223093e-05,-0.000334061967116064,-0.00012668941093679737,-4.520442684939477e-05,-9.068251323117579e-05,-9.550515596736678e-05,-0.00018970951728829267,0.00015317831751833843,-0.00014294831425223543,0.0002599500730441982,-0.00010730485105137948,0.00022987054194252403,-0.0002693244574356983,-0.0021215334239044425,0.0,0.0,0.0,0.0,0.0,-0.0023589223435793454,0.0005115507908615518,0.0005649772681553378,-0.0005682900449455839,0.00048142735179095984,-0.00025752150234480494,8.154023951297038e-05,-0.00024315112801800824,2.8405583322083765e-05,-1.2494348085884866e-05,-6.884251411106199e-05,2.594589959995931e-05,-0.00013175170034536037,-1.3941924121574192e-05,-3.7752150646241426e-05,5.104042098926704e-05,-0.00011473196323708506,8.26366636740606e-06,-6.749547017379943e-05,2.3447477269047e-05,-0.00013354551071046193,0.0001699388130525455,0.0004533393409871178,0.0005442007344793361,0.0,0.0,0.0,0.0,0.0010592673611119366,-0.0011435099002821839,0.0006132798720334875,-0.00024686214512206176,0.00014209835314836977,-3.9274799220903824e-05,7.380142145093522e-05,1.4356358972180167e-05,-5.846858032101513e-06,-6.455001976203559e-05,-1.3113712713456249e-05,-3.001777655514897e-05,-5.33272533883191e-05,2.800755156774144e-05,-7.754604555863813e-05,1.4521026176710536e-05,-2.1540871125446755e-05,3.5829340878455805e-05,8.030982756012295e-05,0.00012214866533645226,0.0001154689476820843,0.00013085081952017992,1.339634578056409e-06,-0.0002083715431140592,0.0,0.0,0.0,0.0,-0.0006992252095860947,0.00029042888211678453,-0.00046347165894509323,6.591206847839216e-05,8.512458357820692e-06,-0.00012814431161110404,1.8889263195376848e-05,-2.9554106776261452e-05,-2.218259455921302e-05,7.017512851921958e-05,-5.225760378571123e-05,1.275763660084631e-05,-0.00010930135267650714,-7.358421258568584e-05,-5.3134588375683925e-05,1.1447354540665356e-05,-3.3472114740390706e-05,-1.7960661497124778e-05,-7.253817407679684e-05,-7.315629648234966e-05,8.351777010312015e-06,8.613391478492261e-05,0.0002570674868881178,-0.00030498650089763835,0.08563004412614365,0.0,0.0,0.0,5.540161997788534e-05,-0.0004521534448549861,0.0003723388753168319,-0.0001913644109185028,0.00013417507994281872,-3.2036432812602553e-05,-6.370281929243265e-05,5.3590702644199145e-05,6.50513114866917e-06,-4.0627579645225396e-05,2.1651748555792577e-05,-5.06841828950879e-05,-4.588830021564817e-05,-3.706380929047348e-06,-3.781636787809494e-05,-4.6070705675056304e-05,2.9516865077382744e-05,6.133259079564357e-05,-3.0822817550492777e-07,-9.389514565610105e-06,-5.226425735091189e-05,-9.572210609677563e-05,6.222180104434792e-05,0.0006746795612687613,-0.04085070052322221,-0.011395357006783947,0.0,-0.0012870306147263642,0.0005896943312441316,0.0003413839129938362,-0.00014041380225578967,-8.719722011666892e-05,-7.222747630577553e-05,8.983255257151371e-05,-1.1023361386099142e-05,-4.6408858005412385e-05,8.546707366141433e-06,-7.103130710147148e-05,5.038649810636017e-05,7.775169794512701e-06,-3.231990065880038e-05,-6.728045763001974e-05,-1.625587097381051e-05,-7.627825082054263e-06,-4.471471497579892e-05,-3.940366058310324e-06,7.106535983679907e-06,7.584990976851329e-05,-2.8478933298407252e-06,9.856992094505322e-05,9.917251446425425e-06,-0.00035889047969344333,0.0,0.0,0.0,0.003171123422636952,-0.0008442528255231984,-0.00027297205283462693,0.00012839298052869945,6.2183653640465315e-06,-0.0001180350442486313,-8.601378985725105e-05,2.0006469205906703e-09,-5.319560342022114e-06,1.0340878155951997e-05,5.945295162225611e-05,-6.05537802664855e-05,-2.0799980034076955e-05,-5.426992088141466e-05,-1.7579152610763553e-06,-1.3052710905014741e-05,5.819212423956455e-06,-6.63887789265807e-05,-5.754095178703724e-05,3.725358123697685e-05,-1.8985186287070017e-05,-2.6928059302087957e-06,-6.868706534107633e-05,0.0006785342344715913,-0.0002086130361895804,0.0,0.0,0.0,-0.005091977838581682,0.0012124481808772451,-0.00023418542991926028,-0.00020301437877711046,1.5358567218722652e-05,3.2585558275654154e-05,1.3423069902120398e-05,-5.844552586475988e-05,-7.233983707099311e-05,-5.876775562514557e-05,-0.00010116460306288435,-6.276594847282533e-07,-5.8390349705593654e-05,-5.1851536195478104e-06,-7.056633961226633e-05,-4.6529866865258864e-05,-2.610023489439279e-05,3.589463455464634e-05,-3.6517237370190063e-06,3.245080694903712e-05,0.00010948876157391804,-4.3537161795768054e-05,-1.9870074914442855e-05,-1.5381342697002697e-05,0.010191206669286619,0.0,0.0,-0.021811646276213494,-0.004698951632763658,-0.0017968469991946805,0.0003219317160000354,7.633323985482795e-05,1.0978365834867976e-05,-8.345197469475051e-05,-9.463346226789521e-06,2.159926110859513e-05,3.0081275908493178e-05,-1.4028950739460673e-05,8.743239442033599e-05,4.416281929443637e-06,-0.00010494952309977107,-0.00012547174813243037,-3.568339117019327e-05,-2.9363717812565074e-05,9.12412679261615e-06,1.008784041006178e-05,4.4015954317693884e-05,-5.303722713675681e-05,-0.00016006141674122144,-0.00010479286419551263,-3.1577577674076497e-06,-3.81343783584448e-05,-4.902927861387223e-05,0.0,0.0,0.058765869290761684,0.010847642566700044,0.0007218924000668649,-0.0001997507818069829,0.00019353712819284905,-1.857416584910005e-05,2.1489868056357284e-05,-3.453664243890054e-05,-2.515698659622429e-06,3.298500600595135e-05,-8.948560068797085e-06,-3.349808489460249e-05,-1.9504955427668427e-05,5.7412444762907295e-05,6.455787243022532e-05,0.00012072315276989175,-2.3897571147159988e-05,-8.929031636996905e-05,-6.397395354609379e-05,-5.648106007655129e-05,-3.4722451316500194e-05,-2.345852336598875e-05,-4.100291874349178e-05,-9.212800095881793e-05,-0.00014235865589638843,0.0013104335923637541,0.0,0.0,-0.01916397269091066,-0.0052486291472180245,-0.0004205590812248469,-0.0001373054780373399,-0.0002027849286054151,4.931398466288163e-05,4.388459914457267e-05,1.0198466477831815e-05,-2.979832055600386e-05,2.654728775028516e-05,3.521421411369247e-05,-1.4071139999090363e-06,9.16079997207532e-05,3.2613998866110234e-05,0.00018292461962547674,9.23907924271268e-06,0.0001433562295301072,9.334805715590094e-05,-4.465867090871723e-05,1.744488989184706e-05,4.7853036785532795e-05,-3.0051248776128154e-05,-2.5026242181133804e-05,-1.3583302372536306e-05,-0.00017080132083014394,0.0016090077700132636,0.0,0.0,-0.01675680938272427,-0.0034686189155063974,0.00027382725605683685,0.000197769137900788,8.419108024867722e-05,-1.4392986754373829e-05,2.0661830049195743e-05,9.121985084566776e-05,-2.7441751966479282e-05,1.2490994439018447e-05,3.5772093537248715e-06,-4.154741352140882e-05,-3.350360854872549e-05,0.00017478034349248327,4.3728961710750294e-05,0.0002908021916781311,0.00013502197192689862,-1.2457093454248473e-05,5.934235008926445e-05,-7.4609115602443915e-06,-0.00012610441096220023,9.48561541229901e-05,2.8627251343359827e-05,-8.722439949798057e-06,9.053743806474997e-05,-0.000143600081285782,0.0,0.0,0.0006998830444426631,0.002196635692577067,-0.0001787380852456463,-2.5247045033355948e-05,-4.193474808089732e-05,8.349410024906264e-05,-3.545151074204239e-05,2.5873454859100832e-05,9.166818193550028e-05,-4.544617967032426e-05,8.082385334126849e-05,-8.98380484560033e-05,7.31072433413325e-05,0.0002404950092948536,0.00012140606636936882,0.00026450226283664205,5.7330463865100785e-05,-2.188663566539652e-05,-1.1987633870728418e-05,-7.59292145709488e-05,4.618100417732095e-05,-6.938114222922813e-05,-2.4029800344245992e-05,-9.452710280449887e-05,-4.391148432787148e-05,0.0002114910965061265,-0.037502056137175464,0.0,0.0,-0.0033753002156928164,0.00027147614529414996,-4.43253116799781e-05,-3.4497075866638064e-05,-5.454464046731741e-05,8.793820946213572e-06,3.0928296942933424e-05,-5.841039464735808e-05,4.053916755922168e-05,-4.6480199611211324e-05,-8.279310661644253e-05,0.0002020469999811985,7.800133497030596e-05,0.00025366535605707887,9.78340018793969e-05,6.29720005834091e-05,-1.1402903064877083e-05,-1.8331960087933842e-05,6.342830029230753e-05,-2.661710625925731e-05,0.00014068009328756915,-7.088209357882685e-05,1.629685979232907e-05,3.8857119569697294e-05,0.0006642999283151005,-0.06148246805744121,0.0,0.0,0.0024645715646456957,-0.00011438146729027627,8.385402426645839e-05,3.6443782789459266e-05,5.352535042814671e-05,2.284972581563332e-05,2.2450137267873297e-05,6.996820887207303e-06,-6.632794564928784e-05,-5.331480796031229e-05,7.569831326499379e-05,0.00030031694936684384,0.00017351531333750284,5.7978176071554126e-05,5.542878920458788e-05,3.282776141426183e-05,0.00011737847513879086,-3.570848675683866e-05,-3.0621290252204464e-05,1.9496125593713385e-05,-0.00018761072497952458,0.00015663977707480018,-0.00016695824083157716,0.0003307982417966127,0.0029466321668422434,0.0028464449167416497,0.0,0.0,-0.00030421759318786045,-7.770676466924851e-05,-0.00015424464992583951,8.157631745244824e-07,1.5788732223500154e-05,-8.772024811071707e-06,-4.270526220220082e-05,-1.3839294388899166e-06,-6.684717459703375e-05,-3.831066307797188e-05,0.00014280750904191745,0.00011772004337300295,3.1583321292581914e-05,7.099892507436753e-06,6.17598074513938e-05,-7.733468402033376e-05,9.867627508518593e-05,5.996182253695e-05,8.421455444879396e-05,3.844074338761609e-05,3.9269840459808485e-05,2.7941001549044613e-06,0.00010345717733827255,-0.0012757901105609087,0.0020860219702870135,-0.024231217330956182,0.0,-0.00022778588537789187,0.002378311553541406,0.0009920049368033932,-1.63676744125587e-05,1.5873337511675148e-05,-7.944596037431325e-05,-3.898728511877616e-05,-6.827064027706961e-05,-0.00012937262187212023,-0.0001674290740796504,-5.1683006553034455e-05,-0.0002474584034448283,0.00011871231428301358,2.6026481277219e-05,-1.0796425330413113e-05,7.481609583795126e-05,1.633502228232506e-05,-5.970414374978326e-06,7.700545161360727e-05,5.212504493208818e-05,0.00011352813255219051,4.4452246015641595e-05,-9.212223481857003e-05,-3.739922368761867e-05,0.002855714716778588,-0.0019930095110987523,0.0,0.0,-0.0005738331951455569,-0.002725079845414019,-0.0004641993525255456,-6.415634832878837e-05,-0.00010086452741197976,8.090476647440823e-05,-0.00011891281328161092,-0.0002079137641206693,-6.511164668780482e-05,-8.401319652175964e-05,-5.781689660818616e-05,-5.142214070703452e-05,-1.5667218810474992e-05,5.044774373365928e-05,-1.0015106425115282e-05,1.30889170906877e-05,2.7309361773120036e-05,-5.9939439795933134e-05,3.655655550968727e-05,-9.58682101073886e-06,-5.0561980829294255e-05,0.0001763157750300261,3.728965412558542e-05,-0.00024326235761082062,-0.0043626969282979594,0.0867722848327616,0.0,0.0,0.0,-0.008153742723851748,-0.0013069258720491048,2.436181974199729e-05,5.158836149028145e-05,-0.00015326492247189622,-5.242536323709356e-05,-8.715150285510604e-06,-8.150880499764827e-05,-0.0001703168625371748,-2.0137636518182563e-05,-6.251816749685459e-05,3.122627229705676e-05,7.651418322280496e-05,3.1822569920422265e-05,1.117599349938546e-05,0.00017459610310293725,5.901719238311103e-05,-1.7367914690556196e-05,0.00013623086103147728,-0.00010451171761201215,6.455618902590015e-05,5.0408206258609126e-05,-5.0459556231187424e-05,0.004529979395703685,0.0022552853172053914,0.0006324263592760474,0.0,0.0,0.0,0.00022999518815663376,8.602932252334557e-05,-3.468338257005365e-05,-0.00021737489590147754,-1.5398465637299305e-05,-8.427795842649503e-05,-6.769912563324097e-05,-2.3855272340227428e-05,-0.00014990494446913787,-0.0001214452379115794,-0.00018780212800281442,-1.047668902300398e-05,-1.1127936505443398e-05,-2.7588593799843484e-05,-9.878412214855075e-06,0.0001028754356494944,6.651725446383714e-05,-6.119277935310207e-05,0.0003302250694791288,-8.36599248591986e-05,-2.122371403223637e-05,0.0005046649088420528,-0.001372206515579031,-0.09425353295652537,0.0011680690577480749,0.0,0.0,0.0,0.0009972527759502204,8.557611311005973e-05,-0.00036611082966769967,-1.1227956509329173e-05,-7.320652069149328e-05,7.930806803747457e-05,-7.590508974618956e-05,3.141532506534228e-05,-1.1698138849223525e-05,-3.283453037980226e-05,-2.934684766498773e-05,-0.00013116308395654146,-2.1934328386313913e-05,1.5168569126550938e-05,-7.736691258313759e-05,-1.2963090281904905e-05,1.1348619453625819e-05,-4.24276321531431e-05,7.556603488375806e-05,-0.00029913750981040146,-8.166255171104056e-05,0.0006486540991031101,-0.0004713846246738048,0.0980114470314887,0.0,0.0,0.0,0.0,0.0,-0.0017061167783790961,0.0001329490798250508,0.0003090091570901239,-7.151058083884497e-05,-5.0270705946549866e-05,7.141828978309178e-05,-0.00015665478110087562,6.542976573930238e-05,-6.626355920793645e-05,-5.4596150205657696e-05,7.148924673558358e-05,-2.406074406098767e-05,4.4340332588842615e-05,1.1208231665459861e-05,-1.2813021457993417e-05,7.987073718114219e-05,3.987998296028136e-06,0.00010373800211961778,8.557634424579285e-05,0.00032192009480345063,-0.00041533914843146084,0.00017663132967788998,0.0,0.0,0.0,0.0,0.0,0.0,-8.021534792912323e-05,0.0023578408638818254,-7.719704125333279e-06,4.4501213729790566e-05,0.0001538507909541514,0.0001101552862833537,0.00021200979314452316,7.961794220763088e-05,0.00012603764158622397,0.00010138350276344808,3.075925958802533e-05,7.419978195131677e-05,3.363547481612964e-05,2.4416313435155852e-05,-3.098527727275857e-05,-1.3129477616100126e-05,9.663666837957456e-05,-0.0002652255672765246,-0.0003408318649675206,0.00037060902148678364,0.0036386328569967996,0.0,0.0,0.0,0.0,0.0,0.0,0.0,-8.148237982122276e-05,-0.0003031209131040512,-0.00029218648393391307,-0.0014370048483473559,-9.919300218174365e-05,0.0003329784807105667,-0.0001315525016198065,0.0004604170487086577,0.00013744547045794683,0.0005283458838906231,-0.0002282557557550463,0.00023544457023225686,0.002367346685934815,-0.0019339946421749333,0.0010618427051373941,0.0007804198939865356,-0.0012254221836719497,0.0,0.0003322605134665674,0.0007297738744564516,1.9546351523869175e-05,0.0,0.0,0.0,0.0,0.0,0.0,0.0,0.0,0.0,0.0,0.0,0.0,0.0,0.0,0.0,0.0,0.0,0.0,0.0,0.0,0.0,0.0,0.0,0.0,0.0,0.0,0.0,0.0,0.0,0.0,0.0,0.5111616667345056
4,0.0,0.0,0.0,0.0,0.0,0.0,0.0,0.0,0.0,0.0,0.0,0.0,0.0,0.0,0.0,0.0,0.0,0.0,0.0,0.0,0.0,0.0,0.0,0.0,0.0,0.0,0.0,0.0,0.0,0.0,0.0,0.0,0.0,0.0,0.0,0.0,0.0,0.0,0.0,-0.009209140766660726,0.011499929362590117,0.012601666380528696,0.0,0.2756507258564113,-0.27462339141680187,0.35913089831805384,0.0,0.0,0.0,0.0,0.0,0.0,0.0,0.0,0.0,0.0,0.0,0.0,0.0,-0.05043845267040277,-0.014413945723088606,0.0,0.0008049580179762354,-0.008242362010025492,0.01578685628064826,0.0,0.0,0.0030676239174135854,-0.01750415564640441,0.0038660570690051414,-0.00834314950540461,0.0037483951763806938,-0.0026997520318440766,0.0037322486694025725,-0.0015797203796117183,-5.9199010357957175e-05,0.002246288228482391,-0.1057702349157196,0.1411147680999877,0.07161162671551159,0.0,0.0,0.0,0.0,0.0,0.0,0.0,0.015206300837270257,0.009194871374219721,0.005643865136202204,-0.009651645778982344,0.0018285001219744805,-0.0012924887428708092,-9.166489470519839e-05,0.0009616438735740665,-0.0013050878498140144,0.00048581791877643735,-0.0003508785796602316,-1.372595004451434e-05,1.8802660770784386e-05,-0.00018767511159648845,-9.039319947769302e-05,0.00038891859882771537,-0.00024831325410630675,0.0002156506136648223,0.00016958573703812092,-2.1515220506493056e-05,4.7978895046900975e-05,0.0006651936044048758,-0.002460634471759798,0.017261327198156776,0.0,0.0,0.0,0.0,0.003186488390925836,-0.0002328267296916528,-0.0006979754175727116,0.0001269059900120213,5.160684764097077e-05,-0.00017932448514214281,1.0339357188072355e-05,-8.496056911378156e-05,0.00010296466020692362,-7.147729908656711e-06,-0.00011420346396042206,4.878862501859588e-05,-0.00013210837830977386,5.5554304908250094e-05,-4.906642627048753e-05,0.00015377195105895167,-0.00017941642876148886,-4.59320265599423e-06,3.224931373210965e-05,2.4783938569500487e-06,0.00012713385090567665,0.0002894529934552471,-0.00032354476416142965,0.0006170864862345787,0.0,0.0,0.0,0.0,-0.0021585748241790084,-0.00016009412447196366,-0.0007406598688987102,-0.00018623311401843145,0.00010384440058737504,-0.00020584046259993378,0.0001863633998141543,-0.00012865234294039262,3.844663890734849e-05,-7.018896505133772e-06,-2.9297773327295535e-06,-8.131249069945772e-05,-5.506644002474205e-05,-6.0189981743309585e-06,-5.94468368800987e-05,-3.262713328940342e-05,-4.68388278062346e-06,6.242955701254554e-05,0.00013468200466268268,-3.665072222245076e-05,0.00016880385374454343,-0.00010791696213182883,0.0003281822636981584,0.00013662247340087244,0.0027421694753255064,0.0,0.0,-0.027348069005584723,0.0,-0.000632966366050151,0.0005432827317063694,-3.323341433451184e-05,0.00028154527733995646,3.6947122912519894e-05,0.0001371606837768103,-1.622688499169789e-05,2.6696980912916746e-05,0.00012305956538855847,-1.7222458901708628e-05,7.410628266408037e-05,-3.571798071304265e-05,-7.492598630799017e-05,-3.7173756652882716e-05,-2.429779831097885e-05,-5.26351799660531e-05,6.291106174680359e-05,-5.268793797466986e-05,-6.099082698171542e-06,8.993477020705948e-05,0.00019323643726320164,2.5396197567720083e-05,0.0002479722652790484,0.0004832007779734335,0.0,0.0,0.04055509933868299,-0.002186128534156045,0.0007490501541568457,-0.0005384253601319407,-0.00016714254046192994,6.0523815208101676e-05,0.00010509770473310592,-0.00011102869255326006,0.0001349831158871403,-3.880951597374756e-05,-1.993923568099343e-05,2.6176231972851153e-05,-1.6259553653148997e-05,-5.9241507440530565e-05,-2.2801078028181315e-06,-6.361496887393776e-05,-0.00010837432334122836,4.927505113858729e-05,3.596373990772584e-05,-3.726420240798252e-05,-2.1376486868879583e-05,8.237300803903398e-06,0.0001518504367059729,0.00015366383640643934,1.0556333492231684e-05,-7.83561641371055e-05,-0.005784204027099391,0.0,-0.0030539882229806263,0.0028592853025994247,-0.00020461794171632545,0.0008343787534198378,1.344103054233473e-05,-0.0002447303069706968,8.299611556789139e-05,3.445315376044773e-05,-3.7474102695313016e-06,8.123543088723952e-06,-1.0583032883339928e-05,4.4033504793510117e-05,-3.397766040501289e-05,2.6610982980699385e-05,-6.832501134056374e-05,-6.837630999526784e-05,-4.071945389061841e-05,2.97683771542514e-05,-6.788383872226971e-05,1.9202617729514452e-05,1.391121342078214e-05,-3.857969031454864e-05,0.0002818849244013683,0.00010928206848841636,0.00014060353892927772,0.0005386872920618666,0.0,0.0,-0.012276252580937848,0.008716417566502259,-0.00020259419491219097,-0.0004926202649960787,8.188715925472057e-05,2.1062607813310346e-05,-6.911521669618528e-05,-2.6342943822277907e-05,-3.9324450854280164e-05,4.896733989956671e-05,2.600153817267109e-05,-0.00010385152633149864,2.4872232821296e-05,-2.0114263723707597e-05,-3.5222502297430364e-05,-5.270517186185874e-05,0.00015970697902122332,-0.00019153963726243448,-8.656369987189028e-05,0.00011631610670260358,-2.1836948513767853e-05,-0.00010160876592142747,3.402410337333879e-05,0.00020807856318791855,0.00032576424320263927,0.0007662647054868075,0.0,0.0,0.020602820977810743,-0.02770060233177969,-0.0001475114066105404,0.0001251189379445364,-4.155583267933272e-05,7.990988686524725e-05,0.0001262544615294687,5.785364896461329e-05,6.413821175053827e-05,0.00010191940687605096,2.8510188866271577e-05,1.5198480606215418e-05,-3.219507419850387e-05,8.108619334329452e-05,1.6198730066951365e-05,-0.00022344459719976235,-0.00022151314621452942,2.2508740974973387e-05,1.3671491343877555e-05,-7.112281324149825e-05,3.09411597919366e-05,-3.301658672892855e-05,-0.00016852859846180302,0.000762588101858729,0.00020682924645864468,8.759497984519984e-05,0.0,-0.00820549149275129,0.0,0.0003050128404913474,0.000719608231736559,5.644795527709833e-08,0.0001087409198035754,-8.550310227861881e-05,-3.57829540491113e-05,7.896977636834846e-05,3.579776270431836e-06,3.429695069436428e-05,0.00010046898720543,0.00012641374167598901,0.00010893606264080533,7.987531928487705e-05,0.00022483603266979944,3.594861725701611e-05,-1.9569237410959874e-06,-0.00018852434976651206,-7.35575624193547e-05,-9.892589627955363e-05,-0.0002946480867350128,-9.03923286387191e-05,0.00018111850008600328,0.0004992489511717534,0.000525578613725233,-0.0011721174386959841,0.0,-0.011741573497482524,0.00418692665854661,0.0023553280299856423,-0.00035493695488836784,0.00020823473219752157,-8.851406653243202e-05,8.273220104722193e-05,-3.6805301768201447e-06,-6.114701045812723e-06,3.6498653959588896e-05,9.598440778900503e-05,-5.997477536318984e-06,-5.4206907345779886e-05,0.00014414937584334223,0.0001799781967194632,0.00025233845055498753,8.038750565923065e-05,-5.014830557286549e-05,-3.429321151338719e-05,-0.00018740857522233636,-0.00028623650942378667,-0.00019649389057051876,-0.000226413424121633,-0.0005084567468814922,-0.0009985733175207048,2.56591327153401e-05,0.0,0.0,0.0007944151535035093,-0.001912156003855995,-0.004324567072201875,-6.151163207106422e-05,-5.33684132510534e-05,0.00011316883556614291,6.766283173010562e-05,1.3174407362158638e-05,5.074177614587237e-05,-3.586651609807451e-05,0.00010732796242767961,0.00012351508199334613,0.00013953339779133983,4.715901766776285e-05,0.00020747094409014855,0.0002965293930184943,-5.220703421145415e-06,5.8034363033401226e-05,-0.0001071218529682402,4.800567107932479e-05,-6.970187483169122e-07,-7.81776909006317e-05,-0.0001936251626201449,-0.00019201435265064952,2.8541684591064837e-05,0.01868207050361667,0.0,0.0027451539016263207,0.0,0.0,0.00406892345643271,3.1490200091300284e-05,-3.766842767406334e-05,-0.00010004491882089859,-6.980176896293204e-05,1.3320019167575465e-06,-9.031060658709233e-05,0.00011890361370176654,-0.00010135347632193112,2.0088852622587667e-05,4.004693148979234e-05,0.00012925966302948473,0.00025206383429579197,0.00022250437604908347,-0.0002023284266748879,-8.500479669253543e-05,-7.260755548476175e-05,-0.00011456523656090929,-0.00023133966793262772,2.730161610783212e-05,-0.0001273484492035321,5.9913135487096125e-05,-0.0004331631319864167,0.0,0.0,-0.0056179842859971464,0.0,0.0,0.0001562107174972851,-5.213671215301739e-05,-9.942086271594472e-05,0.00013688007572351232,-5.7422460655738185e-05,-1.2795990605890066e-08,2.0774945343387492e-05,-0.00012109403483724938,0.00017922016212814886,-0.00016263188819483506,0.0002581383378751271,0.0003996343603353756,5.3953306974063956e-05,-9.470545884870058e-07,2.318268603020959e-06,-4.058158200684783e-05,-3.75359917995533e-05,-5.1937400093218566e-05,0.0001720643459056916,-7.99617013872459e-05,3.108934737198631e-06,3.4880961481658623e-06,-0.0004109120281200873,0.0,0.0,0.0,0.0,0.0,0.0013364891413475911,-0.00021090319465737276,-0.00020180345140280575,-0.00023976570447421737,-0.00013129921699786074,-0.0001500340476931496,-0.00012995356238159475,-2.7873814839645047e-05,-5.56489134749022e-06,-2.2765850653150048e-05,0.0004128017645107193,-6.389216935177611e-05,4.877130089995879e-05,-9.269855009339434e-05,-0.00014377676221421235,-2.45023779760552e-05,1.6441562739291493e-05,4.897841839725031e-05,-7.744827248174272e-05,0.00016611262262397584,-3.324707281791456e-05,-7.918754614417143e-05,0.0007434201515608539,0.0013350949981533091,0.0018106619042322044,0.0,0.0,0.0,-0.0010797014899793377,-7.245846695469147e-06,0.00014656457464253515,-1.9808827048844046e-05,-0.00012832492394780333,-1.5179021209742656e-05,-0.0001286940569110996,-0.00032338038135144447,-0.00010248070948486011,3.466244105303674e-05,0.0003733723336740173,-4.053607030237499e-05,1.6490809063322726e-06,4.248753044770664e-05,6.742353661545907e-05,1.978219816437148e-05,7.965096819908438e-06,-0.00012650926893010943,1.607500737675693e-05,-0.00020501026690203177,0.0002024338953029652,0.00012596493040152663,-0.00011310681692309765,0.014787249810046617,-0.005028951693078438,0.0,0.0,0.012147975721194448,0.0007569949699256942,-2.2096769543709494e-05,-3.230770167185933e-05,7.683309304758655e-05,4.69148173089841e-05,-0.0001114497758059757,-3.815408033181943e-05,-6.443955630256978e-05,-0.00015062338197345117,0.00013543517836957653,0.00012153702162995091,-2.6677739375863686e-06,6.921137746434491e-05,-1.7862522441069172e-05,-3.0313589121366523e-05,-1.3126185157049065e-05,-6.452929976523396e-05,0.00015084828241636452,1.9532934060243366e-07,0.0001339357881973548,-0.00013521775183799033,4.9671080193902143e-05,-0.0008561437014374765,0.002983919200071357,0.0,0.0,-0.0014657074316152738,-0.0011218008941310258,-0.0004541883706071977,6.68376246142101e-05,-2.4689331754948617e-05,-6.42396941633106e-05,-4.8156101104353836e-05,-5.177677330281432e-06,-9.781282695056397e-05,-1.4297507816372458e-05,-7.729073059828261e-05,-5.167912250133714e-05,0.0001736405280749275,9.277139847753067e-05,2.0941176484660997e-05,0.00012037773159596728,-5.734000063369323e-06,8.394478862679574e-05,1.0799858707777547e-05,8.563537828592323e-05,3.4476099461462036e-05,9.20645475448669e-05,-4.877851796605722e-05,3.4231554206505474e-05,0.0029789136589049216,-0.06742203055073871,0.0,0.0,-0.003692377580901919,0.003681112303238897,0.00029443719915589575,-6.0699824163591644e-05,-0.00011601217748677557,0.0001303036795027648,-9.183211666041029e-05,-2.6875161933061055e-05,1.7692330471055546e-05,-3.93998948719058e-05,5.529579544424585e-06,-6.907053415484552e-05,6.284025368142122e-05,4.331190436639314e-05,2.8312259008976846e-05,3.439039845588486e-05,-2.404677806292624e-05,-4.273486850091312e-05,-5.101860959587954e-06,-4.9916974986750644e-05,-0.0001979756803944083,8.229547240648459e-05,8.505767888374708e-05,-0.00022786215312624964,-0.00418781417260243,0.060227409776571865,-0.02064656471976864,0.0,0.0,-0.012248978514098098,0.0002196061006364768,0.00011740944390401035,7.250032391736233e-05,-6.361569409485179e-05,1.742467076617987e-05,2.5574077369473593e-05,-7.049074189703934e-05,2.6012982478247633e-05,-0.0001568235858160952,-2.441528976809313e-05,4.296088209617235e-05,-5.22956694114519e-05,0.00011002327028507453,-1.4527557646765042e-06,0.00019368093832366476,-1.2833296009982353e-05,1.4029427496987819e-05,4.4407507350113395e-05,4.181786443671003e-05,-9.742664112244692e-05,0.0003858061731769815,-0.0006870479343838605,0.0022688046490548946,0.0027802511863171207,-0.0002510026373064411,0.0,0.0,0.07897217341304459,-0.0004050246635004628,-8.858694304333457e-05,2.3738384656038347e-05,-0.00016493277880796705,6.46576385518242e-05,-9.483731887021552e-05,2.0696337690319154e-06,1.4507597903849597e-06,-6.738694455838414e-05,-0.00015152874343174545,-5.83924359168081e-05,3.268882108474452e-05,2.642541082631406e-06,7.160649908813747e-05,-4.58815809707104e-05,0.00027031235794716397,-1.914231900577968e-05,2.4978301164614684e-05,-4.6691174115975094e-05,-0.00010192115353765498,-0.00025697603179073293,-0.00015256432356045854,0.0017560883146173136,-0.0707641523148413,-0.0004607988647767851,0.0,0.0,-0.0007282926542723905,0.0022358689667444378,0.0003643866486738822,-0.0001360838745361799,6.026078357244277e-06,-3.127474244867678e-05,5.714985774921497e-05,-3.026424500723417e-06,-6.756866271392795e-05,4.776608933871692e-05,-3.2162362927873865e-05,4.149916959450147e-06,-0.00012166932512209083,-3.198537861711076e-05,0.00013913589855428466,-7.92605166041226e-05,-0.0001360203226193256,0.00040116739839817916,-1.8993596758025444e-05,0.0004225794486673874,-0.0007271899015357604,0.0002620916372170345,-0.0008418196705787915,0.0014446542011320052,0.1161287354463476,0.0,0.0,0.0,0.0,-0.0021715881044516803,-0.0015578492711877366,0.0006376321726431106,-0.00022553525027581308,0.00020788380108123652,-0.00012977846320580178,8.335336776950615e-05,-0.00019663216181740724,0.00014815525515004082,-0.00015450252363085292,4.015391335890636e-05,-9.506344458974342e-05,9.038203612422914e-05,-8.966937270579161e-06,0.00020397871095946448,-0.0006042409895204474,0.00045298551580376676,-0.00047083475209163436,0.0001591920480308996,0.0018157366300601578,-0.002882699868924762,0.0075451756493128495,-0.007773566390444186,0.0,0.0,0.0,0.0,0.0,0.0030435794219130894,0.0003158153190391994,-0.0026348398666452212,0.0005013820164735554,0.00012491889748363568,-0.00012661222778613982,4.429066804779127e-05,0.00029735552798336603,-0.00029596468010888063,0.00024960896484161536,2.1373518852914382e-05,1.6148511201409652e-05,0.00016845309449060178,-0.00015742073835524372,0.00018931814495893055,0.000414484505272704,0.0001230485952804947,-0.00041161816501705453,-0.0024126488176622455,0.003131905021682507,0.0014856194320898536,-0.006914402301551238,0.0,0.0,0.0,0.0,0.0,0.0,0.0,0.0,0.0,-0.005539814389640672,0.002921895424838423,-0.0017309177622172192,0.002349285373732996,-0.0021031298224294614,0.002362711093444139,-0.0009281650633420106,-0.00011227875684007076,0.000826727159234969,-0.0010738979329089863,0.0010804086807221574,0.0009062446275041937,-0.0006678779652828999,0.0015772765294276329,0.0017254270894080934,-0.035499457962237226,0.21903752944171337,-4.985774639240776,0.0,0.0,0.0,0.0,0.0,0.0,0.0,0.0,0.0,0.0,0.0,0.0,0.0,0.0,0.0001367586867830592,0.0003058617382179207,0.0003056923760657391,0.0001033392264206459,0.0,0.0,0.0,0.0,0.0,0.0,0.0,0.0,0.0,0.0,0.0,0.0,0.0,0.0,0.6257953595454124
5,0.0,0.0,0.0,0.0,0.0,0.0,0.0,0.0,0.0,0.0,0.0,0.0,-2.966308952906438,1.3553619343698065,0.0,0.0,0.0,0.0,0.0,0.0,0.0,0.0,0.0,0.0,0.0,0.0,0.0,0.0,0.0,0.0,0.0,0.0,0.0391777568969948,-0.016381911098303198,0.0035210985514350984,-0.0012987647505656734,0.0006729771942985128,-0.0001692176877027851,0.00024218306486615117,-4.064687037347474e-05,7.451217175787337e-05,-2.5649522852019975e-06,0.00019656171321415979,0.00013178382710225475,7.413173621059495e-05,0.00021900172595816942,0.00013317866072760608,0.0004042022253750731,-4.573538972758089e-05,0.0006587498919302634,-0.0007411496415964831,0.00134816112751281,0.0,0.0,0.0,0.0,0.0,0.0,0.2271604551976862,-0.016422008935862747,-0.0007788104220214973,0.002970980780019332,0.00034695490716314133,-0.000492648430195042,7.110330084129942e-05,-0.00018092757060931715,1.1954437788946287e-05,-0.00011471419231648358,0.00019389053418217782,5.438750743326104e-05,0.00012848320023106487,2.548575039042743e-05,0.00017560168348501183,1.1113773793462618e-05,-1.5176079684920389e-06,2.6860337359227898e-05,-7.346621836688603e-05,-6.710493547158789e-05,1.2059976113771118e-05,-2.0945173522518298e-05,0.00019651617562685885,-0.0012646794900694764,0.0,0.0,0.0,0.0,-0.10394986293335486,0.0035655733717074086,0.0003240109941782922,-0.0017903170684928455,0.001105043005380781,6.0642487378386625e-05,0.00014128027229496585,0.00039905063669484075,0.00042527396170022254,0.00016032656786398036,0.0002228939525850265,3.674535102758745e-06,0.00013355853447554361,0.00024396395449120537,7.97612368269711e-05,0.000208042188291364,0.00026766217390663464,0.00020131138255665383,0.00031120402253870385,0.00017940195976533997,0.0002836065777091782,-3.917137168389138e-06,0.0003420712444840354,-0.0007160742134196948,0.24022493709746381,0.0,0.0,0.0,0.0029161402697752015,-0.0011292308061284187,-0.0005539067869263045,0.0012737463511151,-0.0003328294901599841,0.00021841610567550419,-2.0464482561639234e-05,-0.00013216057653518958,-0.00013934222571215752,-0.00011432341823510112,4.371424705287262e-06,-4.0176902209336865e-05,-1.5767084783617133e-06,-0.00012083812515916669,3.2122312983479217e-05,-4.3359325981372995e-05,4.9258261272266316e-05,-2.56085145871612e-05,2.711845608608725e-05,0.00011657438133919506,0.00017598577648821008,0.0003744032784585815,-0.0002665248419285937,0.0005119376980320061,-1.6887042224982196,1.2995664204792352,0.0,0.0,0.0015164363339103077,0.0001460008704679982,0.0008722078973478136,-0.0003349641644045594,0.00035565258150691904,0.00012491058587254755,-6.033014546487764e-05,8.388036255094637e-05,-3.7037989809860795e-05,-0.000158730886659723,-0.00011008517124287717,-0.0001498344162352154,-4.715906043562573e-05,-8.417756508121975e-05,-6.170543416013751e-06,-9.649707255494404e-05,1.3007921491444127e-05,-3.153429764184852e-05,-7.990514224340527e-06,-2.6621919307632104e-06,-4.106762944841556e-05,-2.9497770592503686e-05,0.0006831523397006529,-0.00020103695228187703,-0.0729485692584499,0.4355730077846655,0.0,0.0,-0.0001706693851170603,0.03779128395822379,0.00034846697319608635,-0.00028054318816490733,-0.000379223546197699,0.0001131557963268665,-0.00019106053090684464,5.3423570212757945e-05,1.9764298818319233e-05,4.92631900731986e-05,0.0001318144716023765,-6.394071773700965e-05,-4.925422137313227e-05,2.1034552401409214e-05,-0.00014885442252746077,-5.6589257455091964e-05,-6.542775970645438e-05,-0.00012772142053989516,-2.167822641003829e-05,-0.00021561952324613252,-9.47242170543712e-05,5.291171259490736e-05,-8.527561077241605e-06,0.001457009418898264,-0.004076982079873828,-0.018343879236422424,0.0,0.0,0.0,-0.011424215313572808,-0.0003906715072661008,0.0004400057438867765,-0.0003322400598383688,0.00013044038861039875,2.743173865238541e-05,-0.0001855896738813458,1.4686133712599083e-05,-0.00010493701841233827,-0.00010691536460178621,-8.431297942951726e-06,-9.932690749594579e-05,-3.237645575263182e-05,-1.6479331462580642e-05,-0.0001269934767531721,-0.0001275620864486523,-2.1675944773670914e-06,-1.6566218643267967e-05,-0.00010828688145059172,-9.751308124154683e-05,-0.0002325838945798576,-0.0003405535739796832,-1.6400263150370132e-05,-0.0017597706497109523,0.007637185920004031,-0.005352560404638376,0.0,-0.0025787821624613377,0.0172881359886451,0.00046512979660895984,0.0004277638087616413,4.730925035081325e-05,-0.0002761841765679579,6.0356709203921646e-05,8.40621872422923e-05,-9.419558818115974e-05,0.0001121583196425934,-4.982024027309719e-05,9.481339178512375e-06,-3.1422934635742916e-05,-2.4059431218080986e-05,-0.00012978427124887094,-6.17663453502792e-05,-0.00016407495372326857,-0.000158875383394426,-0.0001963944815271112,-0.00011935340743950882,-8.927398549296781e-05,-8.939119151832912e-05,0.00019337538033485603,-0.00036751997696519946,0.20216187159425456,0.0,0.0,0.0,-0.04047779490649282,-0.012393216363334791,-0.0005836553277635642,-0.0004365822484469055,2.2397252799762714e-05,-1.6496736530704233e-05,-0.00010577981769559501,-8.560658096938193e-05,-7.28245561404395e-05,-4.937466625154765e-05,4.268294263809975e-06,-9.46258486496657e-05,-3.0031842211703262e-05,-7.414195724712023e-05,-2.304552749010964e-05,-0.00010470439594980336,-0.00018185794572487,-0.00014901101725838656,-0.00018153164855201628,-2.0912703429128235e-05,-8.913638439469451e-05,-0.00011268456340006451,-0.0004146512488462195,-1.866726897055371e-05,-0.20651286079663084,0.0,0.0,0.0,-0.011270727553094927,0.016708668554585977,0.00036299466733131716,-6.371511366262035e-05,-1.847973302622164e-05,2.676524275062609e-05,-2.3267963767212344e-05,-6.294889808499216e-05,-4.887276932274631e-05,-5.8559571125351926e-05,-4.578863365550048e-05,-2.0494127108188677e-05,-8.411367995542389e-05,-3.87143997437789e-05,-0.00013380929642714122,-0.00018632056147943393,-0.00011387571904744752,-7.582300421269825e-05,8.810740398769194e-06,-0.0001566812709061572,-0.0001407652145071383,-8.854861699666138e-05,-5.3816006813149596e-06,4.2370518281031566e-05,-0.0038113084857412847,0.0,0.0,-0.010320974492972404,0.0,0.20361267169567585,-9.479767323399574e-05,0.0001874023730813171,-4.5197486786604287e-07,4.8254735838210726e-05,3.210897772850225e-05,-9.842272665184107e-06,-8.42047931521709e-05,2.0241395199356213e-05,1.2525434335025561e-05,0.0001018739816339836,6.862167051431382e-05,1.0758198560260022e-05,0.00023138564530039853,-0.0001305861353940395,-3.9566207030190816e-05,-2.1991947167216566e-05,-8.447947243906571e-05,5.174017131541469e-05,-8.335717100380795e-05,1.9050900523605974e-05,0.0001235600306563492,0.00013602918590654612,0.02721366679493744,-0.003638995965889542,0.0,-0.0006922953451197228,0.004128307645589579,-0.2009591583247395,0.00032607151474414134,0.00011325439904057503,-3.6049083346326145e-05,2.846006219030946e-05,0.0001104363558970502,0.00016678589473083965,-2.7454639606057874e-05,-5.3211813228232086e-05,-4.2483346434757685e-05,-2.8239344900640683e-05,0.00011148909210427581,0.00015336792322804524,0.0001432999379085735,-8.623886356245131e-05,-9.025449490995088e-06,-9.211343386247731e-05,-5.5221035005418505e-05,-4.2238639824441365e-05,0.00014784428385693752,-3.158980838185928e-05,-2.3264122787859825e-05,0.0006069328471504547,0.0031938055109361606,-0.005933287209069953,0.0,-0.002463472376238645,-0.0028364105379271023,-0.006241874404830021,-0.0003209094928719697,-8.149657815574089e-05,4.244044524342028e-06,-0.0001096755423007907,-5.454067353561348e-06,-1.1631302868618896e-05,6.85999767906563e-05,0.00010736679130555627,-3.00732869115253e-06,0.00013592119098755935,4.725907637263231e-05,0.00018736354224501434,0.0001960148831991639,-0.00011168380757174812,3.942599974432702e-05,-9.346933103610235e-05,5.0020434497873436e-05,9.898263004533378e-06,-0.00013041354558626788,7.263669952641348e-05,0.00013202926746752792,-0.00028486499977600435,-0.001863476669795025,-0.0013770797036985385,0.0,0.0,0.0,0.008927039503295271,9.944188146162244e-05,9.47610009682199e-05,9.450499693530952e-05,4.159833663966495e-05,-5.274876642991322e-05,2.3823723307206094e-05,3.739458641487191e-05,9.688113787922319e-05,5.111894346229386e-06,-1.8830517365443832e-05,0.00012263496783859742,-3.1095241978005145e-05,0.00029668171163437396,5.196506690370017e-06,-5.160960661160321e-05,3.90207104154635e-06,-4.287941871795755e-05,-0.00010109224274697224,0.00011936269293010671,-2.880715466601344e-06,-0.00022377404181211,-0.0002051214610341488,0.0003334931655361265,0.0,0.0,0.0,0.0,-0.001949738057108578,-9.65718888988459e-05,1.0114640214908202e-06,6.424549672238979e-05,1.4928172117138642e-05,9.680704984653361e-06,-5.5235667516413986e-05,-4.7288259153013284e-05,4.820070522969833e-05,4.4993232504066965e-05,0.00014381799672750917,0.00011206912053529512,9.311599139354093e-05,0.00010825213162618884,-1.1872436163249118e-05,-5.762723734746391e-05,-1.1862348813508259e-05,2.6979433710625635e-05,0.00013177250910157456,-8.506504685720331e-05,-7.452764024407918e-06,4.5781885956440393e-05,0.000566120435514009,-0.0006872168582752728,0.0,0.0,0.0,0.0,0.0006374983282447238,9.36579060402319e-05,-8.951166153046079e-05,6.523683619436655e-05,-2.7209572426739998e-05,-3.832737905368958e-05,0.0001294746407005562,-5.986644925994344e-05,6.896964465508544e-05,-4.735559995440422e-06,6.344564784385365e-05,7.097230076021502e-05,0.00017512527103045298,0.00011931642852056329,3.6623899036109934e-06,-7.764535993829446e-06,-3.040480650056597e-05,1.615260307082944e-05,-6.0658730884905564e-05,0.00016005299948791484,-0.00010404402949393284,4.784712808385828e-05,2.4781033322980465e-05,0.00020464966435769884,-0.0005632703978288393,0.0,0.0,0.0,-0.0020192045127279496,-3.104040572006435e-05,0.00011417567703192611,-9.35548527431115e-05,9.761485151106105e-05,6.761522259953075e-05,-5.495234415760428e-05,2.379524583239465e-05,4.879781153877771e-05,-6.803302050272317e-05,4.8559677614254814e-05,0.00015589174507994646,0.0002080909845913962,3.1183982150764135e-05,-4.536158463254296e-05,6.431344155597256e-05,-3.974022425160871e-07,2.5981055594300892e-05,-8.478670505117984e-05,-0.00011755293234762394,0.00010507499323781122,-0.00024295490916689583,0.00024481940955585707,-0.00035524671727320235,-0.004882252178570481,0.0,0.0,0.0,0.0011573064705386758,-0.0001719303093695121,-4.606894442246878e-05,3.1650469619489445e-05,2.116822416613578e-06,-2.5902782899070523e-06,2.1981979826557654e-05,2.2715954239641848e-05,-7.554783770114006e-05,0.00010562652314039753,6.166573069905083e-06,-1.0536372530862522e-06,4.067679087144509e-05,4.039793781685078e-05,-2.815902493707905e-06,8.836789323059363e-05,-2.9769133787939578e-05,5.917528057662227e-05,5.418857681776351e-05,2.990557290690866e-06,0.00012569389233072078,-4.475043332502139e-05,-5.36959003286349e-05,0.0010339997587972547,0.0,0.0,-0.009268646776806349,-0.009083332022374598,0.0003353157941876381,0.0001789953889872455,0.00010073378130865745,-3.3140529968880526e-05,-8.977989357705792e-05,-2.2373704432675783e-05,-9.145784278082141e-05,7.031768977031656e-05,0.0001388608644180339,-7.986646044854661e-05,0.00011008920350097834,-3.3804463269730815e-05,-1.6199998115489587e-05,3.240153480503977e-05,5.170985999949929e-05,-2.8757745277022766e-05,1.9433134775953583e-05,1.809700900484189e-05,-3.983254021151973e-05,-5.5860755604751965e-06,-0.00025661493045813524,-0.00021955047168092722,0.0009123802250388321,0.0035760230751893827,0.0,0.0,-0.02334063252752747,0.041033381296568694,-0.0007506427067028454,-1.0193539078601359e-05,-4.750140042216712e-05,7.679467540626654e-05,-3.838616617215602e-05,-3.720502551961946e-05,1.4607728073472072e-05,3.575700609602946e-05,-3.910818750111218e-05,0.0001330307245901102,4.889807571455716e-05,0.0001803161448148113,-4.4731773843920464e-05,0.0001202284757210632,-3.4989255517331076e-05,2.114894933069662e-05,-4.33775315089202e-05,6.010417665865659e-05,-0.00018269839524503144,0.0001653468875443351,8.058676583725893e-05,8.767352347881462e-05,-0.00024407693240449785,0.009874970413820293,0.0,0.0,0.0,-0.009566528874601661,3.744289986275867e-05,0.00010335344451241208,-1.1490164087086963e-05,-4.543921416448351e-05,6.186285062432866e-05,8.612062975008213e-05,3.372843263178094e-05,8.828544768095139e-07,0.00010567823040912613,8.69206261367794e-06,7.431983456793335e-05,7.600625075819603e-05,2.813286207660411e-06,7.189194685515612e-05,8.672238940193741e-05,7.488562111272943e-05,-2.568621979285328e-05,0.0002048907379993628,-0.00016400567541542305,-5.7061113113642e-05,0.00011587063401810164,0.0005058640205769271,-0.0024480646235462283,0.0024206573434100765,0.00016318320013890427,0.0,0.0,0.0,-0.00011927984716161784,7.432054759651932e-05,-1.564793578257215e-05,-9.347498558095171e-05,2.017732470312115e-05,-4.658312643817792e-05,-0.00011812397551182761,2.9261574283744013e-05,-8.190784641458412e-05,-5.0745940240145104e-05,-1.3859037860099335e-05,0.00010771436373363931,-1.644498680960684e-05,0.00013305470498498984,2.0596941055501236e-05,0.00014615054189948313,7.993415452284875e-06,-1.0957937252573627e-06,0.0002606739469262766,-0.0009030779926765178,0.00026163719963086306,-0.0028586515917778384,0.0018200275974014767,-0.05986684249799793,0.0003014215997490804,0.0,0.0,0.0,0.0033750112787000286,0.0005580973894182508,-0.0003895584058802502,0.00016507041636534172,-6.429931734008432e-05,0.00011161078716044183,0.00011805274417567808,3.2964061544542295e-05,2.1590255432579874e-05,-0.00018719694731055076,0.00015196757802418467,-0.00017063309752094103,3.906905685236945e-05,0.0003007198790838727,-0.0002762904160311301,9.830517365589618e-05,0.0005175547002964602,2.88671899140379e-05,0.0010013175619405152,-0.0004984980864002872,-0.0027424698958971117,0.006709621981232591,-0.023619119024930774,0.0,0.0,0.0,0.0,0.0,0.0,-0.00013338519971853118,-0.0003223953076771574,0.0002249330207075463,4.936809848516061e-05,0.00012053072903847029,9.8386718461819e-05,4.6661098470149035e-06,0.00021782507039887298,-0.00012705474345244366,3.5656702827880156e-05,-9.341003099340121e-06,-4.0837617308627943e-05,0.0002342705378709438,-0.00014924100910949334,-0.00043396202854953446,-0.00041521131790610825,0.0007911016327574471,-0.0009173369531025632,0.004814817819832774,-0.010606091137401503,0.03454144693769398,-0.012964039352719215,0.0,0.0,0.0,0.0,0.0,0.0,0.0,0.0,0.07248441013002126,-0.014816184398338494,0.0023076755229922913,-0.0021711589038872756,0.0021265138531965243,-0.0012797915172002212,0.0007052322874406437,-0.0003946547596793571,-1.68729715919345e-05,-0.00019449937347948955,0.0013439626331838831,-0.021045650012886667,0.10147809895434244,0.0,0.0,0.0,0.0,0.0,0.0,0.0,0.0,0.0,0.0,0.0,0.0,0.0,0.0,0.0,0.0,0.0,0.0,0.0,0.0,0.0,0.0,0.0,0.0,0.0,0.0,0.0,0.0,0.0,0.0,0.0,0.0,0.0,0.0,0.0,0.0,0.0,0.0,0.0,0.0,0.0,0.0,0.0,0.0,0.0,0.0,0.0,0.0,0.0,0.0,0.0,0.0,0.0,0.0,0.0,0.0,0.0,0.0,0.0,0.0,0.0,0.0,0.0,0.0,0.0,0.5099241777696367
